entwicklung,-0.149165,0.079412,-0.165705,-0.158347,-0.853896,0.424308,0.077307,-0.011608,-0.122715,0.877580,0.105273,0.443224,-0.007217,0.225335,-0.100725,-0.231677,0.217255,0.080116,0.542647,-0.257206,0.363861,0.397903,0.124951,-0.085727,0.033178,0.081271,-0.028600,-0.026700,-0.468213,0.012018,0.449607,0.185960,0.000109,-0.501502,0.338586,0.116286,0.618473,0.316938,0.243919,-0.209033,0.275668,0.462161,0.385285,0.220804,0.744903,-0.107038,-0.593208,0.174557,-0.110748,0.295794,0.001847,-0.311966,0.160275,0.308857,-0.367820,-0.622349,-0.479039,-0.788229,0.604957,-0.075416,-0.550118,0.198518,0.595449,0.274996,0.142546,-0.262173,0.115360,-0.178463,-0.495622,-0.085110,-0.095823,-0.328472,1.131673,0.412434,-1.357311,-0.629992,-0.762341,0.355379,-0.612227,0.136872,0.199833,0.092713,0.857298,-0.221774,0.947459,0.315985,0.341915,-0.720714,-0.064982,-0.249770,0.134871,-0.323137,-0.127699,0.282734,0.506696,-0.744322,0.401603,0.269596,0.619711,0.354999,0.546670,-0.013899,0.103166,-0.193139,0.319972,-0.017922,-0.192348,-0.196766,0.675335,-0.315416,-0.599613,0.174687,0.447501,0.269004,-0.670890,-0.611617,-0.017031,0.117337,1.169638,0.420598,0.269735,-0.177757,-0.822348,-0.201233,-0.697079,-0.104283,-0.193442,0.296398,-0.393308,0.016931,-0.137187,0.690837,-0.442205,-0.286861,-0.646674,0.397112,-0.292448,-0.628393,-0.461289,0.065940,-0.413879,0.372676,0.189972,-0.745565,0.243435,-0.804564,-0.286496,0.260611,0.021494,-0.357659,0.650250,0.092669,-0.917804,-0.183827,-0.460832,-1.264876,0.027481,0.395572,0.021041,0.208257,0.435996,0.236469,-0.676955,0.143650,-1.064755,0.467752,0.447772,-0.152366,-0.370010,0.106506,-0.122576,-0.400990,-0.814576,0.104378,-0.190048,0.116884,0.372519,-0.629518,-1.289912,-0.307550,0.328861,0.662451,-0.253009,-0.341139,-0.285732,-0.220574,-0.349805,0.023198,-0.252560,-0.011474,-0.166318,0.480376,-0.330540,0.581244,0.252621,0.050188,-0.519212,0.285058,0.141723,-0.514988,0.193038,-0.189438,-0.275081,-0.337052,-0.055279,0.111313,0.241531,0.596043,-0.363892,-0.472751,-0.528165,0.863361,-0.337978,-0.018653,-0.293360,0.073626,-0.122315,-0.112584,-0.806995,0.175435,0.065089,0.061489,-0.138663,-0.045978,0.312652,-0.564515,-0.424018,-0.781469,-0.191553,-0.205654,0.414867,0.297783,-0.112729,0.429067,-0.203251,0.003522,0.375720,-0.381827,-0.704725,0.062049,0.549609,-0.379188,0.879724,-0.119049,-0.116668,0.190084,-0.313309,-0.154184,0.051918,-0.116437,0.267722,0.163259,-0.327480,0.592716,-0.247933,0.218074,0.256582,-0.024279,-0.320123,0.755875,-0.678739,0.070132,0.393823,-0.078037,-0.135651,0.299386,0.160893,0.018125,0.060613,-0.006173,0.314774,-0.269344,0.516461,-0.066327,0.390498,0.622044,0.239075,0.039058,-0.170937,-0.255520,-0.296273,-0.057706,0.035042,-0.597933,-0.345981,0.265255,-0.093665,0.419132,0.424752,0.481126,-0.167440,-0.228606,0.059087,0.164647,-0.532765,0.338828,0.772380,0.082144,0.246895,0.353753
kunst,0.313602,-0.281233,0.396078,-0.412559,0.177390,0.581244,0.334296,0.397430,0.287128,1.063580,-0.115932,-0.148664,-0.289552,0.311105,0.718680,0.144613,0.303075,0.753111,0.523747,0.123144,-0.062601,0.347575,-0.155920,-0.488620,-0.667866,0.421609,-0.374917,-0.292009,0.083944,-0.212796,0.437547,0.073990,0.146450,-0.092371,0.711502,0.206599,-0.022173,-0.438688,-0.073934,0.075702,0.231093,0.674465,0.075600,0.203358,0.660950,0.524966,0.354173,-0.202242,-0.226287,0.153466,-0.738928,-0.721085,-0.405815,0.557123,-0.871249,-0.231611,-0.294936,-0.250081,0.366943,-0.195083,-0.159081,0.413061,-0.172757,-0.240718,-0.004802,-0.280401,-0.071268,-0.119644,0.346548,-0.486614,0.043415,-0.038689,0.068662,0.346183,-1.926346,0.257877,-0.385643,0.233068,-0.142877,-0.391910,0.236554,0.342290,-0.285607,-0.210570,-0.028928,0.273476,-0.306487,0.009280,0.409224,-0.258547,-0.501598,0.180484,-0.340868,0.218973,0.227878,-1.199691,0.025739,0.707514,0.455897,-0.148017,-0.326662,-0.583973,0.126010,-0.499888,0.018147,-0.034168,-0.630318,-0.363563,0.246998,0.022654,-0.208594,-0.169489,-0.037197,-0.019488,-0.678284,-0.276394,-0.755164,0.328757,0.948134,-0.062251,-0.093702,-0.193650,-0.368366,0.328372,-2.209006,-0.666495,0.553727,0.121276,-0.448480,-0.434909,-0.728753,0.300765,-0.202407,-0.279569,-0.243805,0.629686,-0.094586,0.166288,-0.032090,-0.147738,0.362555,0.308345,0.387635,-0.379194,-0.143759,-0.114566,-0.284606,-0.188665,0.108522,-0.260522,0.105619,0.692024,-0.050430,-0.261208,0.001070,-1.388995,0.358720,0.005600,-0.707279,0.347873,-0.031637,0.092161,-0.150717,0.557810,-0.465405,0.597284,0.170088,-0.278134,-0.170478,0.439586,0.040321,-0.406675,-0.592615,-0.372224,0.461362,-0.185077,-0.016681,-0.183330,-1.445107,-0.031826,0.108417,1.008586,-0.000659,-0.481540,-0.921924,0.387567,0.243066,-0.510547,0.073288,-0.287346,-0.138270,-0.387069,-0.340354,-0.012410,-0.145002,-0.328064,0.373434,0.017005,0.583209,0.459837,0.629840,0.191594,0.478693,-0.337350,0.007624,-0.185393,0.173270,1.189337,-0.190783,-0.585570,-0.365658,0.407952,-0.261088,-0.093219,0.625861,0.643581,-0.157830,0.405860,-0.072554,-0.124579,-0.348928,-0.007715,-0.069751,0.284124,-0.056818,-0.722352,-0.816613,-0.626842,0.194780,0.409863,0.815400,0.332564,-0.227878,0.354073,0.126515,-0.326084,-0.118133,-0.071060,0.271747,0.574618,0.585790,-0.111495,-0.291581,-0.051804,-0.613198,-0.270921,0.252717,0.121396,0.719426,-0.092175,-0.308092,0.003938,-0.681163,0.480011,-0.065146,-0.298142,0.159990,-0.056009,-0.170928,0.280853,-0.070249,-0.488121,-0.164288,-0.386748,0.109019,-0.178490,0.267983,0.039242,0.220981,0.033629,-0.011128,-0.215327,0.806851,-0.075700,0.716733,-0.130379,0.639307,-0.560371,-0.899103,-0.217144,0.046145,0.139324,0.226310,0.216161,-0.184393,-0.022640,-0.737200,-0.192762,0.331859,-0.013850,-0.703628,-0.086313,-0.182773,-0.322859,-1.132043,0.075024,-0.273354,0.434030,-0.393483,-0.309141
maler,0.731643,-0.507094,0.417684,-0.487069,-0.092350,-0.003967,-0.049993,-0.577463,0.799400,1.080559,-0.227180,-0.490997,0.022813,0.238925,0.638836,-0.512297,0.213599,0.342033,-0.352533,-0.294692,0.543086,0.239893,0.186357,0.074265,-0.381398,-0.345277,0.359818,0.341795,0.459527,0.104379,0.110302,-0.654333,-0.269544,-0.959143,0.521419,0.089385,0.185473,-0.906424,-0.936469,0.528807,0.496833,0.882880,-0.286948,-0.048804,0.510109,0.077376,1.114588,-0.672604,-0.367291,-0.475835,-1.071630,0.077627,-1.150665,0.297015,-0.444160,-0.428797,0.378960,-0.613297,-0.285189,-0.035068,0.026827,-0.144180,-0.276338,0.412534,-0.679073,0.333269,-0.418083,0.566302,0.221013,-0.526241,0.139857,0.554398,0.767578,-0.303832,-2.171064,0.434644,0.593638,0.233268,-0.141790,-0.319941,0.065125,0.050335,-0.292287,-0.385713,-0.915594,-0.047845,0.127144,-0.054831,0.470554,-0.104601,0.188502,-0.019141,0.143523,0.582674,-0.321785,-0.647218,-0.260638,0.430318,0.307979,-0.850118,-0.288225,-0.587578,0.286439,-0.364790,0.163077,0.123314,-0.266998,-0.197725,-0.180289,0.091894,-0.550273,-0.465685,0.587259,1.051358,0.341323,-0.369549,0.035612,0.369711,1.346881,0.102097,-0.278171,0.107565,-0.273887,0.310950,-1.588339,-0.530151,0.190708,-0.347337,-0.334252,-0.146497,-0.474870,0.537928,-0.629595,0.687777,-0.453110,-0.224535,-0.180160,0.432349,-0.313459,-0.160078,0.428115,-0.369091,0.906126,-0.092226,0.000625,-0.878536,-0.324360,0.269003,0.266526,-0.351652,0.509205,0.756227,-0.228631,-0.084569,0.510932,-0.967581,0.003939,0.799066,-0.498836,0.661794,0.326026,0.253647,0.321851,0.218139,-0.413612,0.601771,0.265204,-0.843355,-0.619521,-0.080184,0.148693,-0.188662,-0.121952,-0.170959,0.635324,0.102666,-0.373161,-0.286535,0.079442,-0.256909,0.248759,1.168000,-0.420852,0.197252,-0.281648,0.570562,0.605758,-0.422895,-0.424014,0.432500,0.384540,-0.190113,-0.729401,0.037664,0.014704,-0.203095,-0.080518,0.235174,-0.587458,0.315561,0.262492,0.409487,-0.288676,-0.512787,-0.768707,0.347396,-0.393550,0.025222,-0.280358,-0.249088,-0.196334,0.055402,-0.495709,-0.071660,0.552778,0.529425,0.022345,0.025484,0.678688,-0.392216,-0.101393,-0.056259,-0.526464,0.567259,0.159792,-0.003036,-1.302783,-0.829863,0.582385,-0.170568,0.579084,0.650596,0.105947,-0.139783,-0.899301,1.016014,-0.350037,0.206961,-0.056354,-0.062306,0.346562,-0.653023,-0.145521,-0.340267,-0.353356,-0.308864,0.433619,0.353854,0.508464,0.196964,-0.893342,0.426286,-0.289561,0.588145,0.029198,-0.418432,-0.316247,0.779866,-0.270360,-0.291860,-0.036532,-0.058728,0.462410,-0.580429,0.490340,-0.317319,0.165769,-0.199155,0.258044,-0.116288,-0.154428,0.363571,-0.023423,0.178474,0.126084,0.488259,-0.237396,-0.764598,0.162848,0.262058,-0.610912,-0.603389,0.382438,0.049423,0.986524,-0.427869,-0.282956,-0.350424,0.017263,0.364332,-0.656854,-0.067864,0.073279,-0.514795,-0.798624,-0.454934,0.234357,0.216820,0.268084,-0.802971
sport,0.203819,-0.634132,-0.144792,-0.274801,-0.078581,0.145417,0.329354,-0.189348,0.029413,0.469045,0.147351,0.617322,0.181400,0.197463,-0.043794,0.556226,0.606444,0.213622,0.800062,-0.352163,-0.289116,0.210540,0.242144,-0.052220,-0.020683,-0.367870,-0.538629,0.233265,0.087770,0.034869,0.690109,0.483204,0.462983,0.018518,0.137787,0.068999,0.004936,-0.506419,-0.363696,-0.410393,0.204152,-0.019160,-0.332959,0.018837,-0.259366,0.829880,-0.432829,-0.311953,0.418013,-0.488629,-0.050504,0.252449,-0.524102,-0.322829,-0.197851,0.296787,-0.156362,-0.044677,-0.272339,0.125126,-0.341422,-0.418501,0.366382,0.404404,0.386995,0.857451,0.391146,0.100221,0.119094,-0.253507,0.291804,0.020193,0.407280,-0.036306,-2.071364,0.057011,-0.566442,-0.154027,-0.664505,-0.045301,-0.323971,-0.228512,0.321048,0.063295,0.437976,0.512688,-0.646430,-0.296381,0.214486,-0.007551,-0.547139,0.241352,-0.169509,0.293938,0.166783,-0.664007,0.584270,-0.556996,-0.193539,0.027870,0.102062,-0.135369,0.046445,-0.634919,-0.469345,-0.564822,-0.120235,0.263573,-0.018202,0.008164,0.128403,-0.886670,-0.200528,-0.115739,-1.103511,-0.587679,-0.493202,-0.009982,1.251190,-0.272358,0.477489,-0.174263,-0.823697,-0.374939,-1.907625,0.180609,0.273701,0.035666,-0.281112,0.700680,-0.791485,-0.510617,0.360266,0.173347,-0.045822,0.054567,0.157976,-0.148114,-0.111299,-0.120039,0.222799,-0.237272,0.111133,-1.009155,-0.313438,-0.286720,0.033188,-0.136113,-0.023881,0.076342,0.570979,-0.468321,-0.383489,-0.318070,-0.477827,-1.336929,0.306562,-0.332431,-0.687832,0.308000,-0.483338,-0.200282,-0.007707,0.782313,-0.753199,-0.552255,0.232940,0.885676,0.040306,0.863006,-0.441949,-0.613018,-0.469620,0.388253,0.702403,-0.403042,0.673710,0.461721,-0.918515,0.596309,-0.579966,0.739418,0.325072,0.104862,-0.214584,0.015813,0.112905,-0.017903,0.037402,0.566462,-0.403571,-0.460811,-0.432860,0.067626,-0.293219,-0.529279,-0.299088,0.239657,0.178995,-0.653476,0.303245,-0.272949,-0.155785,-1.033686,-0.303860,-0.142282,0.054981,0.404278,-0.532417,0.388924,-0.026596,-0.136984,-0.220736,0.691760,-0.477936,0.165069,0.399576,0.129893,-1.329726,-0.667359,-0.121222,-0.173630,0.556987,0.608374,0.466622,0.124518,0.206871,-0.905816,0.019699,-0.331275,0.465448,0.050763,0.295848,0.020397,0.444702,0.207853,-0.846755,-0.234993,0.539429,0.032407,0.584043,0.048805,0.248374,0.326541,-0.677772,-0.271137,-0.059635,-0.336434,-0.344371,-0.730736,-0.088393,-0.800635,-0.496518,0.675401,0.113885,0.016059,0.030685,0.387475,-0.770193,0.050281,-0.055944,-0.077428,-0.335819,-0.462908,0.097577,-0.258716,0.282221,-0.501692,-0.279472,0.300022,-0.150672,-0.159569,-0.005692,-0.280142,-0.099098,-0.074465,0.477512,0.023283,0.810788,0.013972,-0.481890,0.253803,-0.420725,-0.637863,-0.634203,-0.026440,-0.540389,-0.456337,-0.153219,-0.491857,0.110911,-0.340873,0.247756,0.198012,-0.171873,0.529793,0.888701,-0.142100,0.360636,-0.022571
it,-0.674196,-0.373488,0.354067,0.184150,-0.323104,0.086459,0.981832,-0.143277,-0.231607,-0.161894,0.939817,0.036407,-0.295728,-0.420353,0.043194,0.446940,0.503828,-0.214699,0.047859,-0.145803,-0.207460,0.004167,0.801822,0.259952,0.167169,0.234824,0.076789,0.087361,-0.225942,0.403438,-0.177511,-0.242971,0.029523,-0.112677,-0.310866,-0.116200,0.177437,0.082848,0.970635,-0.227846,0.009950,0.213277,0.511371,-0.220447,0.051495,-0.362226,-0.663394,0.022949,0.442331,0.404531,0.135062,-0.555001,-0.508430,0.257661,0.004125,0.255893,-0.340615,-0.501417,0.001541,0.104963,0.226928,-0.109721,-0.307762,-0.816632,-0.223038,-0.381392,-0.248218,0.611073,-0.020909,-0.788879,0.155441,-0.091674,0.881690,1.092365,-2.111992,0.312910,-0.040063,0.434402,-0.195920,0.181344,-0.169426,0.019707,-0.319782,0.129722,0.076912,0.237371,0.794678,-0.232685,0.288572,0.317573,0.165117,0.095521,-0.203464,-0.122432,0.228043,-0.834601,0.385836,0.202779,0.281862,0.177874,-0.481877,0.295561,0.664353,-0.474445,0.105806,0.091778,-0.189488,0.154344,1.165747,0.308768,-0.436802,-0.853318,0.599597,-0.426809,-0.038848,-0.658773,0.305879,-0.304301,0.938680,0.253388,0.339974,0.099749,-1.303839,-0.103999,-1.386419,-0.144833,0.655734,-0.611985,-0.433987,0.634699,0.433657,-0.087480,-0.174355,-0.079076,0.432161,0.011295,0.516507,-0.087343,-0.203354,-0.621450,-0.076938,-0.282136,-0.017185,-0.046326,0.322982,-0.150588,-0.061866,-0.628910,-1.011740,0.189728,0.441041,0.275642,-0.019954,-0.451732,-0.855003,-0.805065,0.045946,-0.171321,-0.357683,-0.254497,-0.068821,-0.605216,-0.537618,-0.249776,-0.403403,0.359259,0.305184,-0.142619,0.849181,0.190951,-1.013376,-0.427738,-0.889116,0.466409,0.034185,-0.276638,0.403292,-0.274235,-1.158901,0.497434,0.591700,0.812012,0.149083,-0.391679,-0.099913,-0.182223,0.022553,0.769837,0.449156,-0.363345,0.015102,0.092939,-0.220173,-0.067539,-0.436404,0.310329,0.845113,-0.078151,-0.054611,-1.186764,-0.262551,-0.120368,-0.166324,-0.511038,-0.456756,0.099263,0.520524,0.906326,-0.669965,0.526195,-0.264013,0.089381,-0.618440,-0.043379,1.262291,0.127753,0.510639,-0.159931,-0.451777,0.575512,0.119190,-0.359096,0.240256,-0.717389,0.500501,-0.251867,-0.126138,-0.162071,0.042689,0.212777,0.393662,0.144944,0.314780,-0.018095,0.358279,0.625071,0.276927,0.008237,-0.521786,-0.093427,0.228927,0.286152,0.235508,0.434709,0.554779,-0.081997,0.116049,0.440081,0.208350,-0.300441,-0.517956,-0.239160,0.123755,0.448568,0.320893,0.040938,-0.456380,0.802789,0.081284,0.620926,-0.182625,-0.524511,0.011634,0.228955,-0.283363,0.106114,0.133215,-0.298629,0.729808,0.020157,-0.426806,0.198654,-0.062899,-0.723066,0.834579,0.360163,0.277189,0.267498,-0.134627,0.215487,-0.915202,-0.084760,0.395805,0.689597,0.327006,-0.288418,0.549792,0.392771,0.399851,-0.237714,0.042287,-0.082991,-0.110821,0.864453,-0.358495,-0.582017,0.351800,-0.206915,0.512056,-1.046436
verwaltung,0.021726,-0.119695,-0.363019,0.282825,0.236816,0.107095,-0.149270,0.402291,-0.114348,0.013799,-0.105774,0.150790,0.103864,0.108158,-0.289206,0.012458,0.685677,-0.133336,0.833427,-0.085216,0.050269,0.070691,0.093063,-0.040849,-0.029949,0.197834,-0.267391,0.204982,0.009412,0.451191,0.926470,-0.358682,-0.131460,-0.266286,0.026532,0.190189,-0.172890,-0.177735,-0.158814,-0.643255,0.102194,0.284478,0.582796,0.423717,0.426969,-0.402905,-0.071519,0.663343,0.288098,-0.378512,0.255150,0.601638,0.125021,0.059796,-0.132409,0.019219,-0.415648,-0.409038,0.077042,0.329269,-0.543166,0.060767,0.887583,-0.503594,0.313936,-0.161844,-0.339931,-0.181914,0.041485,0.081963,0.016202,0.001117,0.709711,0.054205,-1.255964,0.148580,-0.059979,0.604971,-0.399589,-0.093974,-0.246290,-0.732532,-0.483507,0.321847,0.552340,0.219239,0.160837,-0.339562,-0.139581,-0.514013,-0.556650,-0.187411,0.387266,-0.148280,-0.716714,0.029267,0.928163,0.700816,0.650095,1.352909,0.507979,-0.100108,0.234107,-0.731862,0.276469,-0.017268,-0.413552,0.047367,0.978926,0.060358,-0.648397,-0.174864,0.161604,0.453780,-0.977351,-0.059811,0.001456,0.146259,0.811777,-0.080101,0.465968,-0.229861,-0.573947,-0.164984,-1.135413,-0.225713,0.054585,0.441510,0.772974,0.034234,0.486045,0.910196,-0.201346,0.584125,-0.490409,0.378752,0.244676,-0.387484,-0.741347,0.256055,-0.748822,0.062290,0.483246,-0.337846,0.063944,-0.635634,-0.221916,-0.070126,-0.456362,0.040302,0.264495,0.374659,-0.076434,-0.416193,-0.361013,-0.776225,0.557909,0.001557,0.205383,0.347762,-0.257626,-0.289165,-0.596606,0.807300,0.312466,-0.003953,-0.019669,-0.040910,0.001601,0.560326,-0.272535,-0.497605,-0.791914,0.301757,0.148810,-0.169636,0.641428,-0.271434,-1.350351,-0.266030,0.267552,0.223526,-0.766388,-0.137009,0.011912,-0.418769,0.220572,0.172197,-0.284987,0.123133,0.046699,-0.269064,-0.172592,0.239697,-0.003896,-0.229342,-0.400327,0.164068,0.377962,-0.342375,0.046111,-0.049186,-0.146976,-0.871393,-0.294688,-0.007615,0.126149,0.146655,-0.357409,0.395770,0.406158,0.180638,-0.445049,-0.306307,0.632754,-0.187206,0.374225,0.261563,0.005400,0.275726,0.326366,-0.043097,-0.211358,-0.110974,0.060385,-0.389639,-0.631397,-0.479955,-0.579915,0.279090,0.834690,0.554591,0.172772,0.135131,0.442352,-0.251930,0.533970,-0.061285,-0.340209,0.166966,0.164188,0.356194,0.691366,-0.175653,-0.354814,0.213425,-0.094951,-0.100913,0.004637,0.765780,0.263386,0.409407,-0.267572,0.747238,0.529252,0.160297,-0.169856,0.053004,0.143760,0.254981,-0.101600,0.075913,-0.294519,-0.065182,-0.069424,0.007690,-0.168731,-0.311510,-0.146204,0.353612,-0.457664,-0.117903,0.456061,0.334779,0.168725,0.612053,0.691665,0.150994,-0.320367,-0.539003,-0.387146,0.451091,0.277828,-0.460974,0.029965,-0.013079,-0.241147,0.118528,0.506168,-0.086095,-0.270137,-0.126566,0.186219,-1.044762,-0.280342,0.443213,0.215566,0.707772,-0.019424,0.345451
schutz,-0.015670,0.813853,-0.373539,0.535879,-0.262492,0.685832,0.128603,-0.304753,-0.612274,-0.220131,-0.023733,0.654184,0.067256,1.053519,-0.161258,0.002390,0.469868,-0.151474,-0.245958,0.276317,0.303837,0.375203,0.234854,-0.228909,-0.163018,0.063763,0.035943,-0.367195,-0.268401,-0.712201,0.469545,0.041543,-0.353486,-0.088224,0.129774,-0.660640,0.044544,0.346441,-0.207030,-0.896988,0.280648,0.786906,0.615812,0.847472,-0.231415,0.435142,-0.092634,0.720039,-0.506244,-0.078996,0.527465,0.025988,-0.804220,-0.265451,0.677607,-0.092303,-0.536800,-1.085587,-0.270049,0.108682,0.028057,-0.492492,0.489984,0.133163,0.619485,-0.291311,0.177716,-0.753773,0.313160,-0.189181,-0.075759,0.012733,0.465050,0.181195,-1.314960,0.027187,-0.105052,0.689881,0.036842,-0.146400,0.386383,-0.165780,-0.005088,0.316989,-0.021411,0.543323,-0.472454,0.376093,0.030209,-0.784289,0.296199,-0.070865,0.125613,0.164839,-0.041548,0.697002,0.156735,0.479316,-0.517084,0.374956,-0.107875,1.010125,0.351626,-0.563816,-0.535481,-0.114417,0.016142,-0.636946,0.333106,-0.303719,-1.208800,-0.340311,0.161317,-0.133474,-0.021877,0.008059,0.447441,-0.669451,1.023334,-0.560192,-0.036980,0.108645,-0.149199,-0.812843,-0.034651,-0.113419,0.347411,0.139863,0.004927,-0.486332,0.166422,0.298534,0.069525,0.339807,-0.694608,0.372425,0.362717,-0.135264,0.022408,-0.448653,0.451053,0.524749,0.310030,-0.797653,-0.085947,-0.289587,-0.834064,-0.062564,-0.257533,-0.215980,0.519045,-0.221856,0.082572,-0.075174,0.016111,-0.523489,0.051571,0.478171,0.012877,0.198406,0.056758,-0.134916,-0.271542,0.439333,0.252908,0.265608,-0.177575,-0.484399,-0.392138,0.164226,0.430437,-0.140417,-0.745414,-0.131384,0.554121,0.120167,0.650409,-0.162206,-1.139806,0.105259,0.526233,0.899278,-0.585524,-0.692963,-0.026473,-0.358465,-0.161147,0.222439,0.247346,-0.222610,-0.359751,-0.232444,0.569300,0.191970,0.314848,-0.224764,-0.431564,-0.097824,0.121684,-0.326687,0.332587,-0.127650,-0.265594,0.039863,-0.263335,-0.618670,-0.476621,0.163208,-0.283558,0.202569,0.713692,0.123931,0.346075,-0.701536,-0.137965,0.196280,-0.051932,-0.035275,0.179767,0.031242,0.220610,0.240345,0.432475,-0.428050,-0.387922,-0.573412,-0.685641,-0.534017,-0.070563,-0.494064,0.618801,0.136775,0.116253,0.389164,-0.502539,0.242459,0.019808,0.175838,-0.618641,-0.012593,0.374200,-0.310914,0.301228,-0.098820,-0.213115,0.461701,0.258072,0.180682,-0.094997,-0.059887,-0.226959,0.251915,-0.519029,0.964499,-0.252484,-0.521798,-0.382086,0.138254,-0.589234,0.307518,0.000944,-0.262024,0.668833,0.311762,-0.391279,0.030224,-0.884659,-0.238943,-0.360445,0.408372,-0.340210,-0.444244,0.599101,0.157792,0.992333,0.528789,0.460577,-0.344443,-0.565674,-1.030051,-0.814940,0.494961,0.098047,0.073475,-0.637771,0.378722,-0.594934,-0.145799,0.946923,0.289218,-0.296678,-0.472180,0.256615,0.042146,-0.279721,0.535184,0.179107,0.006211,-0.954282,-0.329261
architektur,0.110940,-0.022677,0.430283,-0.146475,-0.015939,0.790384,-0.192269,-0.182903,-0.273481,1.195820,0.017484,-0.391033,-0.050875,-0.034087,0.013860,-0.364617,-0.004898,0.101818,0.545295,-0.245815,-0.278910,0.267058,0.319090,0.308524,-0.154084,-0.740699,-0.060205,0.353068,0.195391,-0.518172,-0.242674,-0.165603,0.099331,0.355185,0.499639,0.318078,-0.801918,-0.275371,-0.196378,0.140073,0.622336,0.679880,0.464480,0.247496,0.405230,0.088093,0.163462,-0.055467,-0.462929,-0.013462,-0.190097,-0.569224,-0.393116,1.137313,-0.927093,-0.071943,-0.676448,-0.552562,0.049445,-0.560509,-0.110819,-0.000530,-0.099037,-0.197326,-0.443693,0.100570,0.289342,-0.355158,-0.254496,-0.683913,-0.432851,0.013090,-0.160092,0.198225,-1.317421,0.124536,0.288900,0.289451,-0.784365,-0.136701,0.640346,-0.256180,-0.398099,-0.278708,0.668159,-0.011553,0.406407,0.123381,0.549254,0.187496,-0.565372,0.167332,0.349874,0.177859,0.602663,-0.825095,0.122978,0.575330,0.078356,0.466955,-0.080370,-0.193392,0.396734,-0.567620,0.071820,-0.184246,-0.504669,0.499547,0.636641,-0.021447,-0.160690,0.081897,-0.134782,0.082712,-0.496962,-0.840392,-0.484364,0.440261,0.503257,-0.280061,-0.660955,-0.305472,-0.387723,-0.035250,-1.847566,-0.069807,0.856432,0.411426,-0.690842,-0.252657,-0.368083,0.228478,-0.754274,0.031847,-0.365455,0.393769,0.273046,-0.706125,0.203521,0.152080,0.109640,0.297321,0.196590,-0.352796,0.147530,-0.054260,-0.405417,-0.034390,0.015204,-0.470879,0.117367,0.238168,-0.593708,-0.638954,-0.156492,-1.283801,0.742037,0.256639,-0.717322,-0.038529,-0.420169,0.187336,0.111846,0.778701,-0.196258,0.884777,0.151434,-0.670455,-0.432344,-0.474495,-0.199230,-0.378109,-0.217571,-0.285473,0.611668,-0.270918,-0.124768,-0.666911,-1.406969,-0.203991,0.690597,0.372212,0.443839,0.506934,-0.207583,0.028343,-0.808539,0.288661,0.658373,0.121407,-0.383210,0.137348,-0.441297,0.154138,0.013181,-0.025971,-0.820851,-0.054486,0.276490,-0.488495,0.018243,0.048199,0.116474,-0.176220,-0.036004,-0.402387,-0.035866,0.609157,-0.207169,-0.630468,0.065612,0.377964,-0.147780,-0.200218,0.707211,0.110038,-0.100226,0.269241,0.266850,0.100377,-0.371832,-0.181164,0.337003,-0.284958,-0.190549,-0.216850,-0.778076,-0.431980,-0.122468,-0.350159,0.848455,1.018657,-0.034850,-0.010070,0.118345,0.216340,-0.333266,-0.474741,0.510094,0.427603,0.753476,-0.104906,-0.289751,0.345724,-0.814975,0.033526,-0.040521,0.026856,0.430508,-0.146254,0.321337,0.142522,-0.646136,0.471878,-0.170998,0.284220,0.717470,-0.131898,-0.196175,-0.111289,-0.311712,-0.045945,0.004729,0.221574,0.154481,0.283351,0.410974,-0.336273,-0.002932,0.037836,0.499210,-0.867967,0.556743,-0.027700,0.019863,0.451447,0.409404,-0.161062,-0.747739,-0.268095,0.250305,0.265807,0.434799,-0.101233,-0.506104,-0.339143,-0.494341,0.095991,0.417834,-0.430804,-0.904735,0.180462,-0.185482,-0.186936,-0.400632,0.588452,-0.278900,0.735364,-0.095422,0.018007
sprachen,0.269090,0.479457,0.168896,0.136753,-0.491336,0.645051,0.425355,0.489982,-0.075554,-0.235611,0.325693,-0.092591,0.016316,0.501529,-0.004013,0.031271,0.925929,-0.374744,-0.305048,-0.954766,0.084838,0.041571,0.387289,-0.375593,-0.219474,0.275296,0.037847,0.160360,-0.872248,-0.170340,-0.208346,-0.165030,0.252409,-0.290131,0.471910,0.270903,-0.478825,0.237978,-0.723883,-0.213085,-0.267854,-0.165475,0.864986,0.500760,1.179681,0.324981,0.081072,-0.317735,-0.171653,-0.604344,-0.275305,-0.091640,0.469554,0.137986,0.393613,-0.234516,-0.478418,0.120789,0.018755,-0.279322,-0.095495,0.127577,0.798536,0.028889,0.528726,-0.098423,0.949597,-0.312879,-0.038578,-0.075250,-0.529951,0.549375,0.368691,0.573913,-1.360714,0.231300,-0.445537,-0.143994,-0.378198,1.040160,0.429532,-0.068256,-0.169322,0.421091,0.022575,-0.273014,0.150322,0.075609,0.097972,-0.065888,-0.452880,0.289250,0.449565,0.225663,-0.411943,-0.655169,0.289508,0.382279,-0.199577,-0.057068,1.027717,-0.385478,0.379461,-0.438597,0.451029,0.151463,-1.172231,0.205316,0.430884,-0.152604,-0.384492,0.650680,0.395748,-0.030917,-0.156363,-0.823416,-0.117909,0.206378,0.837905,-0.446184,-0.117509,-0.228011,-0.030748,0.206447,-1.014130,-0.562945,-0.173828,-0.219469,-0.529986,-0.341137,0.078645,1.436778,-0.233325,-0.342944,-0.233500,0.080394,0.000457,0.206838,0.445697,-0.325309,-0.258062,0.209595,0.382024,-0.099005,-0.147422,-0.098809,0.375433,0.054082,0.171543,0.079701,0.604706,-0.134085,-0.616236,0.586987,-0.714358,-0.867216,0.149883,0.035152,-0.677175,1.163027,0.294759,-0.036505,-0.259755,0.259145,0.206527,0.702792,0.118479,0.913502,-0.098916,-0.697173,0.219861,0.151399,-0.181816,0.102017,0.263507,-0.545655,0.825876,-0.005047,-0.724704,-0.569410,0.198878,1.587309,0.436414,0.755742,-0.303108,-0.399439,0.040199,0.269994,-0.139756,0.131477,-0.354042,-0.091080,0.399042,-0.348365,0.268735,0.751082,-0.227868,-0.630322,0.005483,-0.097341,0.465820,-0.062845,-0.043858,-0.197460,-0.172947,-0.115734,-0.051939,0.282252,-0.176899,-0.220794,0.137247,0.392078,-0.172347,-0.106054,0.505073,0.013048,-0.099705,0.731527,-0.521304,-0.180801,0.038173,-0.234870,-0.735700,-0.248453,-0.082014,-0.461309,-0.286940,-0.357095,0.328853,0.179841,1.125431,0.210626,0.059746,0.340026,-0.687227,0.325148,0.448169,0.181336,0.599434,0.072573,0.728541,0.206890,0.061705,0.430915,0.216232,0.443344,0.353584,0.259656,-0.362004,-0.488222,0.108454,-0.037822,-0.433306,0.213393,-0.347448,0.197331,0.194673,0.544675,0.160818,0.658025,-0.522786,0.155401,-0.494510,-0.432838,0.393612,0.925030,-0.609360,0.556064,-0.177096,-0.373732,0.756729,0.367230,0.597006,0.043546,0.599197,-0.233496,0.251976,0.052218,-0.646882,-0.373818,-0.066789,0.477455,-0.161082,0.394587,0.368785,0.520182,-0.152482,-0.011671,-0.957044,-0.409624,-0.116614,-0.315140,0.082653,-0.619548,0.531314,0.048814,0.487212,0.215590,0.318919,0.122438
landwirtschaft,0.026328,0.237930,0.204906,0.457021,-0.127246,-0.058194,-0.077665,-0.599729,0.212444,0.884341,-0.045263,0.504254,0.401926,-0.140834,0.236500,-0.088321,0.151045,0.049621,0.666885,-0.359520,-0.598978,0.058043,0.445477,0.230644,-0.083079,-0.270574,-0.063670,-0.377192,-0.435575,0.399603,0.764529,0.736240,0.109371,0.237195,0.902016,-0.725072,0.166717,-0.109658,-0.174762,0.463371,0.244489,0.901820,0.059123,0.796404,0.234766,-0.700850,0.152651,0.014427,-0.189031,0.166547,-0.212944,0.330519,0.175654,0.138931,0.199553,-0.196366,-0.332826,-0.472675,-0.704672,0.364555,-0.937304,0.205812,0.691244,-0.272698,0.087099,0.117975,-0.134667,0.059161,0.297988,0.485536,-0.064793,-0.257759,0.153917,0.313306,-0.974849,0.191257,-0.201906,0.645571,-0.776919,-0.499947,0.138266,-0.481803,0.468997,-0.135369,0.131627,0.333656,0.447349,-0.437611,0.356692,-0.007903,0.274884,-0.298177,0.258392,0.054133,0.095117,-0.388785,-0.160306,0.507308,0.595026,0.620089,-0.231568,-0.292638,0.867663,-0.485580,-0.035160,0.137568,-0.306644,-0.484804,0.444092,0.239459,-0.819269,-0.204254,0.120149,0.140249,-0.636482,-0.414652,-0.166684,0.362279,1.092648,-0.199519,0.479501,0.263272,-0.716399,-0.348316,-0.884717,-1.104359,-0.141111,0.783569,-0.075504,0.197167,0.117003,0.684858,-0.215434,0.081608,-0.303915,0.539024,-0.424188,0.233243,0.089010,-0.420959,-0.195536,0.409478,0.188462,-0.573194,0.416472,-0.711564,-0.259193,0.556708,-0.253521,-0.110941,0.747759,0.062801,-0.238322,-0.122219,-0.178554,-1.377628,0.909453,0.071241,0.050730,0.069962,0.666419,-0.514387,0.110877,0.658107,-0.859947,0.116833,-0.058105,0.323167,-0.103160,0.044385,-0.201433,-0.105787,-0.540648,0.311743,0.029413,-0.089323,0.579784,0.504237,-1.486030,-0.442466,-0.198663,0.291859,-0.913755,0.165058,-0.085419,-0.233468,0.297394,0.008806,0.090906,0.274039,0.006694,0.648521,0.291798,1.048855,-0.215007,-0.982228,-0.913404,0.003222,0.200175,-0.259404,0.511538,0.025848,0.550727,-0.477631,0.042425,0.534421,0.172711,0.217710,0.059448,0.106553,0.082568,0.740361,-0.279069,0.849823,-0.559246,0.499910,0.654968,-0.096806,-0.843450,0.501742,0.079126,-0.337987,-0.285651,0.134444,0.033577,-1.215281,-0.267343,-0.076712,-0.151045,-0.283103,0.699229,-0.016559,-0.435343,0.219206,-0.603773,0.174063,0.023022,-0.100173,-0.592447,0.193415,-0.381548,-0.520401,1.070249,0.180127,-0.183176,0.721941,0.186952,0.205945,-0.110760,0.055414,0.069712,0.614431,-0.157267,0.860498,0.184476,0.212513,0.074829,0.206484,-0.169261,0.389173,0.011301,-0.348843,0.373575,0.343892,-0.283435,0.117419,-0.286241,-0.173067,-0.243483,-0.220941,-0.117174,0.196850,0.044641,0.271732,-0.028765,1.275921,0.325256,0.542407,-0.220782,0.465631,-0.112507,0.429791,-0.089470,0.223756,-0.780858,-0.008148,-0.535657,-0.347486,-0.193494,-0.439741,-0.431121,-0.369906,-0.414751,0.207834,0.326661,-0.172309,0.378304,0.237669,0.103299,0.422047
straßen,0.872656,-0.175326,-0.346699,-0.688028,-0.523683,0.218987,-0.141337,-0.076340,-0.337157,-0.047975,-0.335422,0.920172,-0.644198,-0.279600,-0.400148,0.131584,0.395804,-0.298253,-0.212332,0.002136,-0.244048,0.466752,-0.087144,1.080004,-0.659309,0.256550,-0.232254,-0.119649,-0.624133,0.738822,0.677551,-0.108158,0.548098,-0.057096,0.395463,0.366881,-0.597991,-0.070343,-0.038328,0.180827,0.010629,-0.440922,-0.174272,0.473752,0.283761,-0.472109,-0.168035,-0.018085,-0.176431,0.684813,0.586609,-0.176794,0.714490,-0.298011,-0.007330,0.004807,-0.120978,-0.317419,-0.037583,0.390289,0.550671,-0.400980,0.376823,0.800046,-0.275214,0.323706,-0.255027,0.276636,0.446747,-0.315382,-0.276621,-0.481392,1.006223,0.225048,-1.542246,0.170320,0.306721,-0.234637,-0.397738,-0.070803,0.277280,0.623193,-0.079944,-0.594138,0.085599,0.818737,0.182073,-0.072832,0.346822,-0.821841,-0.664288,0.015111,0.106237,-0.600577,-0.374087,0.292774,0.758215,0.328154,0.066302,0.286674,0.218727,1.259133,0.065538,-0.559804,-0.316688,0.033866,-0.863035,0.626777,0.603074,0.288592,-0.552693,-0.119051,0.594058,0.343377,0.020267,-0.299456,0.760460,0.184475,0.794389,0.326572,-0.133403,0.135599,-0.514971,-0.218035,-1.435863,-0.721663,0.310377,-0.339189,-0.497717,-0.773542,0.111596,0.481879,-0.179864,0.024859,-0.717965,-0.178696,0.270405,-0.160479,0.305900,-0.405105,0.282042,-0.477025,-0.251163,0.197477,0.204184,-0.145474,-0.582277,0.230569,-0.003979,-0.169880,0.408633,-0.388227,0.179051,-0.060609,0.656401,-0.701947,-0.162824,-0.069230,-0.367756,-0.671909,0.599781,0.008360,0.097037,-0.203042,0.651256,0.176806,-0.369186,-0.843849,-0.210102,0.042716,-0.533306,-0.031422,-0.679340,-0.531118,-0.846436,0.462342,0.480694,0.227834,-1.085609,-0.196464,0.160674,0.521280,-0.770857,-0.244277,0.280383,-0.131747,0.032713,0.256039,0.236940,0.531023,0.390089,0.140941,0.009595,0.116114,0.157807,-0.481567,-0.135859,-0.027110,0.110144,-0.202516,0.328907,-0.210481,0.232673,-0.000583,-0.461776,-0.537307,0.574450,0.218047,-0.386400,0.186981,0.415505,0.153092,0.029804,-0.074145,-0.425902,-0.091644,0.308801,0.131490,-1.065890,0.266429,-0.451476,-0.214053,0.279890,0.222954,0.043648,-0.325093,-0.781160,-0.047785,0.243449,-0.160368,0.307342,0.131851,-0.454364,-0.071350,0.455044,0.221265,0.491454,-0.143545,-0.758591,-0.211530,0.116219,-0.329165,0.081556,0.326714,-0.726841,-0.123709,-0.799279,0.443752,0.145199,0.248888,0.373328,-0.358113,-0.129686,1.204147,-0.944325,0.228556,0.145683,-0.061787,-0.262675,-0.103793,-0.307439,0.561818,0.704031,-0.299734,0.240917,-0.431330,-0.360609,-0.764742,-0.495369,0.147558,-0.252549,-0.092252,0.321444,-0.244856,0.038646,0.428065,0.189910,0.588988,-0.375703,-0.297909,-0.011159,0.708702,0.224914,0.239699,-0.464148,0.315938,-0.811877,-0.011190,0.665008,-0.369464,-0.111605,-0.422346,-0.048852,-0.100575,0.209418,-0.118938,0.440391,0.330448,0.207673,-0.338114
druck,-0.166066,-0.013754,-0.124944,-0.479960,-0.546753,-0.042877,-0.061846,0.225896,-0.013282,0.374156,0.324104,0.344421,0.231365,-0.081016,0.220137,0.112641,0.654280,-0.573771,0.269286,-0.016655,0.210093,0.118993,-0.003676,-0.362225,0.037744,-0.849994,0.234536,-0.553858,0.254906,-0.083603,-0.246310,-0.050357,-0.546838,-0.120031,0.498378,-0.143388,-0.119439,-0.101138,-0.169004,-0.230483,-0.180802,0.139340,-0.271882,-0.769527,-0.221090,0.719609,-0.111496,0.419859,-0.425175,0.253450,0.031524,0.639256,-0.167513,0.240471,0.414899,-0.052168,-0.423133,-0.839698,0.436027,-0.261244,0.053457,-0.139658,0.351942,0.482561,0.013677,0.276953,-0.163832,0.008330,-0.179425,-0.326988,-0.576598,0.575084,0.251342,-0.231187,-1.526633,0.281148,0.386721,-0.224428,0.284511,-0.004039,0.668749,-0.106132,-0.220217,-0.166320,0.662100,0.531175,-0.371650,-0.490585,-0.421029,-0.493748,0.409933,0.420985,-0.319349,0.898085,-0.116499,0.422821,0.683559,1.155230,0.184788,0.617370,0.689881,-0.812411,0.059803,0.076188,0.390259,0.556902,-0.411122,-0.526218,0.108754,-0.130286,-0.363198,-0.035722,0.125424,-0.421335,-0.807247,-0.420983,-0.204337,0.369683,0.783247,0.408823,0.187920,0.215842,0.013722,-0.292784,-0.358781,0.032408,1.010840,-0.118466,-0.346011,-0.104068,0.705124,0.337600,-0.677236,0.515892,0.427347,0.351326,0.247835,-0.205678,0.430304,-0.222216,-0.294800,-0.197672,0.264018,0.130573,-0.304390,-0.128816,-0.169044,-0.626631,-0.249308,0.451835,0.050847,0.140697,-0.286033,0.095463,0.478640,-1.255170,0.096543,-0.223546,-0.278936,0.351318,0.242382,0.121118,-0.710357,0.633997,-0.187024,0.311588,-0.605018,-0.572222,0.480110,0.138352,0.322787,-0.087792,-0.289718,-0.541288,0.109874,-0.400370,-0.164940,0.453439,-0.897164,-0.198713,0.341760,0.122330,-0.535976,-0.278837,0.194830,-0.391327,0.174100,0.214697,-0.257498,0.338976,0.007050,-0.019438,-0.005366,0.345166,0.335942,-0.209725,-0.198452,-0.010164,0.587097,0.068252,0.024575,0.307057,-0.005659,-0.534319,-0.363293,0.387834,-0.315551,0.314329,-0.039440,-0.293848,0.039135,0.597894,0.101331,-0.277994,0.639001,-0.563092,-0.163545,-0.740129,-0.886709,-0.294680,0.641814,0.437046,-0.454877,0.535769,0.179293,-0.788170,-0.602406,-0.599599,-0.668145,-0.252319,0.577681,0.417070,-0.644418,-0.241821,-0.065647,-0.067539,-0.043836,0.301096,-0.698320,0.113762,0.421553,-0.377200,0.514416,-0.039213,-0.730534,-0.396847,-0.156714,0.485589,0.081588,0.758778,0.049355,-0.009710,-0.411769,0.192439,0.267177,-0.077685,-0.616665,0.338620,-0.413614,0.412673,-0.109356,-0.088057,-0.192252,0.664751,-0.316703,-0.300205,-0.763740,0.576593,-0.259761,-0.380840,-0.064971,-0.586501,0.156324,1.037529,0.711028,0.278544,1.394569,-0.183658,-0.026678,-0.199677,-0.088298,0.757029,-0.020126,0.326290,0.411680,1.053426,0.186619,0.051557,0.314539,0.214685,0.289488,0.174284,0.029765,-0.411839,-1.299041,-0.255848,0.377383,0.119585,0.144957,0.349510
medizin,-0.137887,0.252350,0.617190,0.459732,-0.224564,0.110298,0.719281,0.576132,-0.270962,0.649679,-0.107513,-0.228548,0.308371,0.007576,0.141535,-0.769751,0.432617,0.008163,0.398146,0.287140,0.418079,-0.589098,-0.632767,0.623553,-0.820579,0.564089,0.696995,-0.282476,-0.514246,-0.479894,0.568751,0.533994,-0.020306,-0.415756,0.632363,-0.193967,-0.361495,-0.758077,-0.231880,0.192417,0.695056,0.562238,0.869900,0.237176,0.321610,-0.535488,0.508738,0.677796,0.353756,-0.290747,0.241101,-0.058816,0.338645,0.342234,-0.241808,-0.258918,-0.603414,-0.173820,-0.168799,-0.176616,-0.324147,-0.241053,0.005045,-0.300049,-0.320869,-0.348914,0.145652,-0.483207,-0.171342,0.085707,-0.196643,0.354652,-0.176221,0.325442,-1.000094,0.319288,-0.483270,-0.054558,-0.211912,0.362927,0.040116,-0.214527,0.243359,-0.583484,0.233696,-0.506214,-0.545841,0.025350,-0.686920,0.373926,0.012023,-0.035916,0.030817,0.431004,-0.409141,-0.117883,0.221394,0.392508,0.344030,-0.167873,0.559337,0.310211,0.604302,0.184694,0.286229,-0.492667,-0.235702,-0.172774,0.485728,0.056380,-0.341656,-0.399754,-0.417158,-0.085669,-1.140593,-0.401746,-0.389786,0.644200,1.707931,-0.301393,-0.001767,0.204277,-0.935886,0.115519,-1.010240,-0.456479,0.410395,0.404328,0.125580,-0.307997,-0.236268,0.372218,0.062575,-0.619452,0.036819,0.455766,0.019455,-0.105885,0.305233,0.154947,-0.046407,0.620199,0.831249,-0.714181,-0.390614,-0.023480,-0.578460,-0.182727,-0.101001,0.310048,-0.048516,-0.030388,-0.102401,-0.189480,0.165450,-1.218540,0.914254,-0.006033,-0.598687,0.368875,-0.140421,-0.123479,-0.537194,-0.345340,-0.258285,0.433953,-0.064548,0.919417,0.060871,0.123994,0.682371,-0.812854,-0.141950,0.040017,0.002836,0.264890,0.059765,0.058374,-1.006136,0.214847,0.471392,0.232049,0.565743,0.297976,-0.236804,-0.076086,0.460757,0.446859,-0.058892,0.475227,0.235584,0.271336,-0.022386,0.627727,-0.030070,0.049135,-0.002930,-0.103528,0.103845,0.024461,0.134510,0.491857,-0.136424,-0.779812,0.190566,0.973019,0.422514,0.588274,-0.042456,-0.458056,-0.364226,0.280714,-0.166357,-0.921376,-0.066501,0.945630,1.086599,-0.113179,-0.240285,0.297425,-0.072956,0.037124,-0.926583,0.553010,-0.068368,-0.653382,-0.290820,-1.117864,0.469524,-0.527862,0.521603,0.048826,-0.482306,-0.113306,0.075642,0.089474,-0.238843,0.259970,-0.123522,0.350245,0.182375,0.122252,-0.100945,0.273725,-0.491054,-0.155358,-0.217857,0.039175,0.201799,-0.227528,0.378532,-0.272582,0.092680,0.703241,-0.227197,-0.435026,0.216973,0.298596,-0.355009,0.531434,-0.515178,0.210491,0.096896,-0.048609,0.085558,0.862351,0.195227,0.263740,0.002381,-0.136219,0.143749,0.298615,0.439976,-0.256643,-0.100290,-0.102949,-0.104805,-0.551093,-1.032825,-0.642171,0.598594,0.429533,-0.318857,-0.159867,0.048059,0.485054,-0.541388,-0.234706,0.453096,0.050665,-0.818663,-0.081215,-0.795786,0.088163,-0.318264,0.842469,0.947240,0.217914,0.182458,0.023663
holz,0.199467,-0.550979,0.198009,0.210367,-0.854113,-0.469928,-0.508627,-0.088503,0.638792,0.765044,-0.091914,-0.368949,0.250363,0.898336,-0.504028,-0.053435,-0.532840,0.168176,0.010096,0.111650,-0.219083,0.136447,-0.060810,0.599991,-0.398678,-0.159125,0.476026,-0.343388,0.432324,-0.801969,-0.110423,-0.151436,-0.325455,0.311878,0.721765,-0.116300,-0.103149,0.125975,0.110569,0.096925,0.657088,0.965945,-0.291542,0.105986,-0.276657,-0.096062,0.688680,0.610915,-0.437405,-0.128422,-0.412566,-0.371610,0.328166,-0.038212,0.188739,-0.263568,-0.214593,0.255448,-0.063363,-0.358021,0.466646,0.238340,0.238368,0.135462,-0.266316,0.099274,0.719045,-0.166081,0.178119,-0.249725,0.199056,-0.285293,0.497905,-0.218824,-1.312599,0.489750,-0.163119,0.293531,0.315662,-0.499783,0.205047,-0.548544,-0.204880,0.272679,-0.196711,-0.370624,0.410192,-0.356129,0.326636,-0.599429,0.305423,0.033232,-0.464069,-0.857953,-0.262050,0.391803,0.152120,0.117527,0.246430,0.360088,0.259510,0.085807,-0.098523,0.363329,-0.212431,0.639630,0.193503,-0.586945,0.187124,0.235226,-0.479915,-0.088477,0.375165,0.134648,-0.654234,-0.319097,-0.479981,-0.030423,0.669913,-0.481325,-0.625545,-0.021278,-0.427882,-0.395433,-0.301012,-0.705453,0.334512,-0.047411,-0.086538,-0.160479,0.079400,0.218859,-0.574414,0.193482,0.279737,0.353066,-0.159573,-0.449738,0.983167,-0.697784,0.024178,-0.314699,0.239839,0.140314,0.249829,-0.300293,-0.760907,0.097369,0.494049,-0.309224,-0.196592,-0.543895,0.997894,-0.113836,0.549662,-1.400804,0.501144,0.775211,0.022629,0.168854,0.191994,0.040067,0.998039,-0.003404,-0.500114,-0.050046,0.235315,0.133651,-0.238498,0.105787,-0.132659,0.093732,-0.265943,-0.093434,0.315395,0.100300,0.680233,0.142317,-1.924941,0.152259,0.102245,0.669361,-0.593074,-0.209820,0.066630,-0.993136,0.561009,0.179898,0.277752,-0.091427,-0.389098,0.362693,0.257690,-0.169775,-0.547402,-0.036387,-0.275380,0.109745,0.196002,-0.073610,0.878972,0.256118,-0.403915,0.158269,-0.402569,0.305714,-0.165656,0.761056,-0.258626,-0.446661,0.227889,0.880991,-0.133173,0.252906,-0.212511,0.121968,-0.031166,-0.142319,-0.458103,-0.273407,-0.337914,0.293383,0.179062,-0.078884,-0.655161,-0.065277,-0.188336,-0.177108,0.538573,-0.484432,0.117658,0.284824,0.027829,-0.377057,-0.066604,0.641968,-0.308360,-0.726192,-0.791249,0.948525,0.295470,-0.634773,0.599374,-0.123103,0.063489,0.606935,-0.268815,-0.472301,0.246025,1.201050,0.036470,-0.049534,-0.445190,0.561852,0.176638,0.036351,-0.061225,0.060894,-0.817256,-0.084365,0.411942,-0.319135,0.671627,0.171708,0.099727,-0.096932,0.139936,0.682131,-0.287013,0.090078,0.181001,-0.793571,0.658604,0.659760,0.077593,0.294952,0.097807,0.348342,-0.654870,-0.121719,-0.898615,0.004940,0.528501,0.587758,0.054093,0.177136,-0.465289,-0.321771,1.190550,-0.293834,0.464886,0.653411,-0.115114,-0.276752,0.101681,-0.327470,0.486982,0.815248,0.025839,-0.572614
archiv,0.593564,0.118714,0.099586,0.467604,0.095033,0.033961,-0.072659,0.275950,-0.084385,0.678311,-0.484804,0.095948,-0.351610,0.760718,0.094688,0.095189,0.527401,0.528764,0.291294,-0.045035,0.471958,0.821252,-0.380359,0.068154,-0.199828,0.597847,0.695441,0.206445,0.023053,-0.016684,0.741882,0.046515,0.650002,0.295609,0.406943,0.240932,0.482039,-0.202319,0.126245,-0.120898,-0.626639,-0.230627,0.291904,0.123028,-0.127716,0.365510,0.683227,0.086363,-0.361092,-0.711212,-0.568436,0.169887,-0.495940,0.355390,0.332589,-0.314105,-0.420675,0.339767,0.286619,0.046540,0.056677,-0.374675,0.142478,-0.132449,0.281530,-0.071238,0.064438,-0.881521,-0.233432,-0.292427,-0.182272,-0.022184,0.245440,-0.286357,-1.962471,0.709076,0.163841,-0.099558,-0.060503,0.184132,-0.005361,-0.125880,-0.163810,-0.122366,0.448703,-0.401581,0.437062,-0.017394,0.059216,-0.143082,0.054264,-0.239921,0.222943,0.244342,0.139489,-0.153957,0.113516,0.262517,0.043634,0.148549,0.011037,-0.150222,0.193393,0.008064,0.146388,-0.150412,-0.626054,-0.417610,-0.032841,0.670466,0.645712,-0.430133,0.228240,0.291170,0.103649,-0.456008,-0.157337,-0.120667,1.114129,0.359556,-0.670391,0.002681,-0.585542,0.801471,-1.350195,-0.356576,0.083614,-0.195800,-0.980341,0.522332,0.463316,0.000817,0.144210,-0.364908,0.109810,0.489781,0.396268,-0.227923,0.280180,-0.197279,0.124782,-0.458436,0.303907,-0.581209,-0.110900,-0.236131,-0.312830,0.157922,-0.625828,0.103355,0.067844,0.066418,-0.388340,0.330600,-0.289503,-1.004069,1.087963,0.089215,-0.065114,-0.065709,-0.376222,-0.464552,0.292979,0.723742,0.022313,0.335593,0.287075,0.240458,0.317282,-0.143045,0.071193,-1.418835,-0.983781,-0.095675,0.026717,0.057554,-0.208022,-0.735811,-0.684303,-0.001147,-0.615621,0.502270,0.099311,-0.580486,0.086972,-0.060004,-0.056784,-0.115896,0.113296,0.651950,0.209173,0.468732,-0.057026,-0.644908,0.332555,-0.630406,0.248150,0.660545,0.307508,0.017692,0.571529,0.603035,0.004007,-1.220081,-0.184642,-0.254302,0.008138,0.974566,0.125751,0.275877,-0.033081,0.617832,-0.442586,-0.701628,-0.195706,0.023279,-0.492052,-0.559691,-0.315281,-0.668709,0.759657,0.448146,-0.272070,-0.138885,0.176195,0.084120,-0.070200,-0.508020,-0.130818,0.381607,-0.214102,1.065577,0.015086,0.326899,-0.060291,0.297643,-0.085718,-0.450695,-0.414103,-0.284145,-0.412651,-0.386326,0.164705,-0.078576,-0.220618,-0.086628,-0.782041,-0.300184,0.244342,0.283745,-0.134238,-0.379963,-0.094353,0.308230,0.503192,0.703187,-0.838844,-0.199485,0.062252,0.436086,0.409998,0.063335,-0.615468,-0.137255,-0.165795,0.143388,-0.680291,0.087063,-0.376090,0.692121,-0.662903,0.044012,0.392254,0.188104,0.419096,0.019298,0.848429,0.189248,-0.953481,0.069144,0.151035,-0.336325,-0.119486,-0.230842,-0.332203,0.317116,-0.519097,-0.581555,0.046688,0.144219,0.010592,0.070811,0.079805,-0.395503,-0.129528,0.020817,0.338984,0.293231,0.193025,-0.063091
design,0.769421,-0.219615,-0.294659,-0.046894,-0.674355,0.009740,-0.145682,-0.326618,0.333807,0.509951,-0.043564,0.471892,0.138020,0.218428,-0.349478,-0.126349,0.525583,0.531790,0.882489,-0.255701,-0.230318,0.403366,0.307371,0.183588,-0.159687,-0.446029,-0.260268,0.313735,0.194217,-0.694908,0.308859,-0.222171,-0.159421,0.018446,-0.284321,0.217925,0.201988,-0.419313,0.020902,-0.667059,0.455003,0.168485,0.030813,0.316225,-0.305692,-0.027754,-0.369797,-0.384021,-0.460129,-0.219896,0.117763,-0.997800,-0.128688,0.733365,-0.577586,0.048073,-0.883196,-0.629474,0.009542,-0.943414,0.066896,0.470724,-0.309753,-0.887327,0.211398,0.319760,0.348437,-0.009607,-0.159858,-0.539519,-0.149580,-0.226020,0.024427,-0.289510,-1.592828,-0.592530,-0.402519,-0.206267,-0.674913,0.009184,0.308698,0.531390,-0.472047,-0.047348,0.924753,-0.195494,0.342445,-0.616170,0.143683,0.869657,-0.264389,-0.162538,-0.425435,0.446540,0.737468,-0.701900,0.206231,0.519382,0.515557,-0.137620,-0.632909,-0.515039,0.098082,-0.506803,0.715427,0.383638,0.191612,-0.308531,0.586738,0.173849,0.135990,-0.476294,-0.121295,0.118676,-0.431773,-0.682514,-0.275799,0.360295,0.868412,-0.101294,-0.076875,0.322336,-0.666790,0.346163,-1.075268,-0.149909,0.540124,0.315843,-0.312206,0.203397,-0.336712,-0.158294,-0.693363,-0.356466,-0.845873,0.233277,0.284917,-0.685996,-0.533425,0.396184,0.414894,0.570471,-0.463284,-0.414594,0.069700,-0.036206,-0.656669,0.125983,0.500024,-0.375197,0.206036,0.445867,-0.253949,0.037393,-0.144612,-1.152799,0.365929,0.096974,-0.246757,-0.124432,-0.283246,-0.145340,0.142706,0.727943,-0.782409,0.940734,-0.307351,-0.380076,-0.585641,-0.186964,-0.561145,-0.129630,-0.593130,0.371504,0.326385,-0.060842,0.236288,-0.312200,-0.812455,-0.151160,0.682651,0.608858,0.200438,0.262099,-0.082217,0.002890,0.401685,0.233772,0.289661,-0.041944,-0.307307,0.035796,-1.241789,0.331050,-0.369984,-0.133650,-0.295814,-0.212539,0.292240,-0.924593,-0.179059,-0.605669,-0.185573,0.164857,-0.586890,0.124486,1.220553,0.798463,-0.519647,-0.293440,-0.437087,0.184406,-0.189216,-0.375537,0.512541,0.764122,0.385992,-0.018823,-0.587259,0.183155,-0.536565,-0.427645,0.060421,-0.355617,-0.369780,-0.031751,0.245370,-0.660122,-0.423917,-0.333696,0.725430,0.544518,-0.490922,-0.206258,-0.013232,0.085410,-0.088426,-0.164656,0.168856,0.588600,0.470694,0.254397,-0.011854,-0.447403,-0.500815,-0.535151,0.309102,-0.007101,0.144078,-0.568011,0.035109,-0.150815,0.127247,0.067571,-0.056488,0.069233,-0.134072,-0.323806,-0.463107,0.451532,-0.111498,-0.242232,0.061976,-0.091991,0.281119,0.482492,-0.170026,-0.385406,0.236570,0.109013,0.212329,-0.852566,0.052559,0.036737,0.133934,-0.423575,1.093235,0.133468,-0.316862,-0.033940,-0.544347,0.192012,0.220943,-0.042309,0.519272,-0.178252,-0.892566,-0.107629,0.105685,-0.063527,-0.481103,-0.190001,-0.041843,-0.621009,-0.615163,-0.112678,-0.493574,0.460271,0.362462,-0.453738
management,-0.552304,0.548111,-0.431799,-0.418242,-0.059757,0.481248,0.093890,-0.207743,0.242326,0.075736,0.713138,-0.164795,0.088327,-0.378376,-0.282003,0.410910,0.565808,0.134491,0.147278,0.740769,-0.298025,-0.312046,0.950184,0.312859,0.144808,-0.610187,0.848224,0.146720,-0.248852,0.247052,0.813087,0.319553,-0.039643,-0.895049,0.138243,0.037269,0.600632,-0.368458,0.433561,-0.828057,0.247060,-0.009777,0.637544,0.118389,-0.856412,0.209098,-0.289796,0.138722,-0.035128,-0.524386,0.433617,-0.150163,-0.446101,0.221836,0.053722,-0.419527,-0.437883,-0.402494,0.476879,-0.599658,-0.565245,0.082140,-0.201174,-0.928565,0.449496,-0.274721,0.087797,-0.432919,-0.331815,-0.077083,-0.066830,0.877048,-0.349825,0.160405,-1.365745,0.080381,-0.473275,0.498424,-0.380431,0.124446,0.442445,-0.107227,-0.651520,0.110860,0.677610,0.121403,0.228543,-0.411656,-0.501243,0.556498,0.077569,0.015425,0.017936,0.066131,0.306994,-0.070777,0.118123,0.599607,0.192849,0.599031,-0.219763,0.154072,-0.350059,-0.992288,-0.041672,0.418636,0.131009,0.029464,1.031979,-0.468695,-0.250725,-0.288881,0.128123,-0.260134,-0.064511,-0.541348,-0.086629,-0.052191,1.047693,0.274752,0.380163,-0.119697,-0.570367,0.456610,-1.051775,-0.402677,0.087825,0.305811,-0.048790,0.181359,0.285372,0.250912,0.616157,0.078324,-0.344918,0.463144,0.455209,-0.561940,-0.258887,0.772092,-0.053464,0.832521,0.267886,-0.480481,-0.213138,-0.228859,-0.580502,-0.250585,-0.592756,-0.021656,0.584721,0.104885,-0.609285,0.037763,-0.142346,-1.328897,0.779065,-0.594748,0.316736,0.403225,-0.070758,0.165849,-0.056897,0.361544,-0.666172,0.373283,-0.518169,-0.443804,-0.287286,-0.172761,-0.361479,-0.099849,-1.039583,0.189881,-0.140525,-0.122378,0.256222,-0.008587,-1.107542,-0.380484,0.348800,0.901922,0.263136,1.050680,-0.340290,-0.644808,0.135777,0.422616,0.259147,-0.087450,-0.078892,0.138369,-0.376566,-0.022050,0.030100,-0.216141,0.392872,0.026617,0.654242,-0.740685,0.023380,-0.468207,-0.086350,-0.695992,-0.784055,0.110527,1.166081,0.777177,0.135437,0.203891,-0.240803,-0.240110,-0.080832,-0.928065,0.630927,0.177660,0.764388,-0.255342,-0.564599,0.214075,-0.201409,-0.852060,-0.016450,-0.165929,0.257080,-0.201197,-0.186969,-0.267580,-0.789159,-0.789771,0.644842,0.443190,-0.425965,0.251514,0.068333,0.400263,0.296039,-0.067626,-0.297907,0.344353,0.330940,0.665338,0.698471,0.248088,-0.274159,0.045537,-0.448057,-0.346645,0.274074,-0.365159,0.019796,-0.029332,0.312910,-0.211903,0.219096,0.472327,-0.162081,0.503039,-0.657857,0.799249,0.266480,-0.047693,0.260151,-0.351018,-0.093986,0.373304,-0.290057,-0.430376,0.142032,0.228271,-0.247439,-0.616690,0.371460,0.073511,0.707348,-0.144825,0.139868,-0.005528,-0.490717,-0.065876,-0.547825,0.279397,-0.202419,-0.642398,-0.502240,-0.450977,0.136092,0.165376,0.509348,-0.110904,-0.010118,-0.366143,0.010839,-0.233328,-0.617817,0.199921,0.049106,0.191406,0.357056,-0.384641
mathematik,-0.119817,-0.246717,0.031810,0.278625,-0.311083,0.639414,0.809474,0.341012,-0.231138,0.286964,0.192385,-0.279772,-0.022117,-0.377981,0.130895,0.253058,0.118034,0.126316,0.423669,-0.831289,0.222252,0.276267,-0.208585,0.281026,-0.343598,0.018085,0.264347,0.270113,-0.360829,0.361361,0.336382,1.005893,-0.169640,-0.026888,1.075273,0.102249,0.136686,0.116044,-0.459584,-0.327592,0.467984,0.064166,0.052706,-0.368566,0.411414,-0.043007,0.544903,0.481960,-0.020543,-0.737936,-0.492516,-0.475581,0.340498,0.723700,-0.391856,-0.445615,-0.305528,-0.157640,0.097987,-0.683149,-0.971346,-0.017122,0.535398,-0.874398,-0.232115,0.081518,0.543916,-0.424903,-0.173015,-0.752365,-0.219678,0.444650,-0.100636,0.281219,-0.994265,0.098377,-0.082689,0.320804,-0.831278,0.285248,0.127833,0.102707,0.173004,-0.764516,-0.227613,-0.592421,-0.044207,-0.195258,-0.013044,-0.320091,-0.770014,-0.203717,0.380360,0.805400,-0.172965,-0.084238,0.656153,0.624532,-0.453731,-0.216902,0.217805,-0.326696,0.158743,-0.332241,-0.161854,-0.287546,-0.483045,-0.074153,0.254898,-0.396633,-0.197559,-0.433431,0.033478,0.295356,-0.582949,-0.763855,-0.154955,0.241471,1.249523,-0.901423,-0.205129,0.053013,-0.227788,-0.123501,-1.627163,0.029507,0.274343,0.717665,-0.446573,-0.099728,0.129041,0.603498,-0.460078,-0.157634,0.169448,0.855622,-0.048191,-0.451422,0.286965,-0.110860,0.084082,0.514673,-0.225971,-0.368683,-0.196450,0.428582,-0.275111,-0.126410,0.190035,-0.404957,0.698543,0.107883,0.390340,-0.131561,-0.368659,-0.785419,0.517106,0.083716,-1.145089,0.087570,0.347845,0.123682,-0.030836,0.465534,0.146039,0.724966,-0.014718,0.740543,0.255223,-0.046363,0.513608,-0.031080,-0.096250,0.122631,0.222700,-0.354056,0.117981,0.146518,-1.072098,-0.539896,0.583476,0.481173,0.227025,0.274206,-0.846384,-0.216076,0.116555,0.593471,-0.153560,0.349105,0.495801,-0.224872,0.274200,1.011803,-0.516885,0.855298,0.101963,0.022508,0.462537,-0.304787,-0.090003,0.112523,-0.014992,-1.013303,0.267819,0.598494,0.582093,0.559244,0.192066,-0.244518,-0.378504,-0.122161,-0.212036,-0.296183,-0.114526,0.788025,0.469024,0.396818,-0.792218,-0.044679,-0.099913,-0.430095,-0.307500,0.701590,0.210536,-0.446822,-0.449095,-0.758639,0.059682,-0.049358,0.658801,0.268339,-0.330935,0.251560,0.560081,0.292583,-0.967639,-0.461644,0.532358,0.164778,-0.165095,0.365087,0.492882,0.317446,-0.569936,0.268224,-0.296778,-0.434647,-0.113679,-0.078516,0.294674,-0.189842,0.314497,0.370741,0.101880,-0.332270,0.257417,0.495809,0.204144,0.651532,0.392906,0.290909,0.206993,0.258797,0.313627,0.386644,0.156002,0.522623,0.272235,0.401709,0.688493,0.464775,0.243481,-0.054536,0.482408,-0.164687,-0.183606,-0.015429,-0.276733,-0.532412,-0.242777,0.777983,-0.265068,-0.303132,0.242419,0.568262,-0.304404,-0.338960,-0.578883,-0.356743,-0.417096,0.357284,-0.150433,0.035350,-0.017743,0.658825,0.199730,0.126560,0.397911,-0.213728
lager,0.345676,-0.120390,-0.314584,0.304506,0.080072,-0.487488,-0.285921,0.049965,-0.101815,-0.111248,0.240736,-0.291573,0.287422,0.107285,-0.132634,-0.343974,0.761675,0.486226,0.395995,0.343860,-0.418128,0.051709,-0.180678,0.507589,-0.503249,0.458288,-0.022011,0.152364,-0.358412,-0.011064,0.436079,-0.145351,-0.203908,-0.225882,-0.535699,-0.948972,-0.416652,-0.330248,-0.195723,-0.049584,-0.103596,-0.055927,-0.219699,0.395987,-0.408291,0.332245,0.080560,0.026370,0.325637,-0.216941,0.108103,0.237020,-0.063672,-0.253502,0.364267,-0.100046,-0.062571,-0.684193,0.155552,-0.562017,0.589300,0.438843,-0.069707,0.067060,-0.431459,-0.314673,0.651554,0.079538,0.443146,-0.062984,0.071905,0.004427,0.991828,0.525950,-0.830943,0.865016,-0.291314,-0.101290,0.178433,-0.268684,-0.139454,-0.795929,-0.497537,-0.372284,0.447745,-0.296516,-0.065270,-0.147459,-0.696362,0.493207,0.053056,-0.205743,0.241287,0.247852,-0.114449,0.003908,0.269696,0.762933,-0.586488,1.240723,-0.302291,0.001985,0.345583,0.350295,0.086788,-0.089527,0.084398,-0.943375,0.682296,0.688042,-0.943226,-0.455948,-0.424988,-0.069664,-0.092658,-0.204473,-0.100432,0.160982,1.445364,0.054223,-0.286336,1.108599,-0.236911,-0.196275,-0.264903,-0.555133,0.239523,-0.091209,-0.488685,-0.071372,-0.142763,0.574621,-0.574413,0.630717,0.077970,-0.073018,-0.074505,-0.250267,-0.431583,-1.055891,-0.572074,-0.102611,-0.006313,0.199415,0.174090,-0.143948,-0.163032,-0.458331,0.430176,0.952873,0.566132,-0.531888,0.287128,-0.191295,0.617180,-0.945494,-0.134244,-0.424637,-0.126102,-0.000832,-0.012515,0.025725,0.242817,-0.212437,-0.407037,-0.212926,-0.175179,0.012511,0.194865,0.148911,-0.151549,-0.467675,-0.260723,-0.619295,0.208941,0.081370,1.078651,0.181639,-0.986282,-0.284955,-0.276013,0.234017,-0.698408,0.123958,0.448455,-0.239253,-0.204140,-0.155219,-0.171584,0.512878,-0.149969,0.099103,0.236516,-0.310854,0.116935,-0.090671,-0.799028,0.339487,0.034626,-0.020291,-0.396383,0.158302,0.395055,-0.086137,-0.073497,0.060729,0.222941,0.076668,-0.132584,0.078988,-0.510989,0.393576,0.474269,-0.464133,-0.010911,-0.810813,0.177115,0.245196,-0.049885,-0.182184,0.210976,-0.413664,-0.423838,-0.192114,-0.013958,0.688318,-0.463245,-0.455637,0.131336,-0.735862,-0.211317,0.765164,0.208672,0.312781,0.085850,-0.137297,0.191044,0.266672,-0.316695,-0.108562,-0.023419,0.118540,0.318566,-0.133913,0.150607,0.245418,0.108312,0.092045,0.245145,0.356774,0.025029,-0.063650,-0.665906,1.451750,0.157964,-0.079955,-0.176607,0.044504,0.394562,0.400671,0.007827,-0.256009,-0.065312,-0.050177,-0.012808,0.239261,-0.105834,-0.265435,-0.388629,-0.227549,-0.137650,-0.574974,0.277673,1.383293,0.015403,0.278827,0.230838,-0.371915,0.038684,0.447563,-0.513006,0.178695,0.499243,0.320756,-0.352419,0.077315,-0.210469,-0.076152,0.035399,-0.033382,0.311690,0.026871,-0.458420,0.118078,0.184896,0.191759,0.065530,0.251323,0.030171,0.357039
foto,0.133283,0.303726,-0.093643,0.420710,-0.172749,0.342089,0.318025,0.206201,0.034795,0.332679,-0.430492,-0.246168,-0.067196,-0.066024,0.267655,-0.263457,-0.285791,-0.111975,0.582889,-0.574069,-0.198997,0.119703,-0.327466,0.699667,0.058168,0.055333,0.120758,0.745078,0.206088,-0.020118,-0.115379,-0.240379,0.626295,-0.054048,0.033197,0.688740,0.166429,0.232801,-0.436501,-0.084048,0.108514,0.834983,-0.153294,0.579655,-0.471808,-0.047757,0.521973,-0.406097,-0.858644,0.138133,-0.505938,0.419470,-0.143402,0.398879,0.120900,-0.640151,-0.094727,-0.422529,-0.247381,-0.567434,0.251967,0.089296,-0.110410,-0.614688,-0.048120,-0.075230,-0.280243,0.104723,-0.030951,-0.186373,0.141489,0.085264,0.427865,-0.176403,-1.594452,0.157817,0.510836,0.007180,0.564793,-0.190559,0.076099,0.196649,-0.131614,-0.162038,0.903739,0.121079,0.026082,0.342340,0.372353,-0.133242,-0.167778,-0.224370,0.093219,-0.405265,0.142537,-0.683892,0.286965,0.452434,-0.702210,-0.148497,-0.080957,-0.040806,0.385053,-0.202180,0.794863,-0.433094,-0.005539,-0.472141,0.461138,0.155778,0.588323,-1.169430,0.783684,-0.300578,-0.060651,-0.553037,-0.031276,0.329033,0.757637,0.131719,-0.135639,0.256014,-0.353185,0.339089,-0.640631,-0.351267,0.301061,-0.605158,-0.652384,0.046571,-0.027652,0.202683,0.047773,-0.002594,-0.215885,-0.448232,0.009943,0.051781,-0.177138,-0.167181,0.053287,-0.234086,-0.014550,-0.418128,-0.144018,-0.759314,-0.075454,0.008112,0.103590,-0.329628,0.284033,0.448432,-0.257868,0.002171,0.245467,-0.722038,-0.169726,0.125088,-0.696811,0.310328,-0.565638,-0.217948,0.660075,0.239945,-0.270831,0.623437,0.168422,0.270587,0.094604,-0.300845,-0.163802,-0.630323,-0.310439,0.129815,0.203956,-0.453298,0.214246,-0.241279,-0.282319,0.404634,-0.154095,0.667130,-0.153210,-0.255393,-0.271507,-0.085890,-0.292000,-0.394883,-0.124373,0.657214,0.354586,-0.090006,-0.150312,-0.531484,0.130694,0.200965,0.079699,0.190232,-0.200698,-0.397595,-0.396537,0.152248,-0.166763,-0.862090,-0.462234,-0.397341,0.195135,0.575016,-0.264105,-0.154937,0.317481,0.599057,-0.233826,-0.053970,0.119513,-0.452102,-0.495751,0.438627,-0.457784,-0.376101,0.363116,0.222767,0.073849,-0.242703,0.105565,0.077898,0.117194,-0.059444,-0.042467,0.126965,0.614900,0.161314,-0.319319,-0.188615,0.071570,0.234745,-0.179215,-0.393837,0.295612,-0.243176,0.521758,-0.151659,-0.382139,0.161768,-0.676469,0.274387,0.282554,-0.259427,-0.179632,0.738309,-0.951594,0.164830,-0.167250,-0.159553,-0.432002,-0.041342,-0.260538,-0.106109,-1.016087,-0.206639,0.222725,-0.174319,0.402542,0.162792,-0.105909,-0.339842,-0.241829,-1.052713,-0.371147,0.112441,0.031710,-0.427589,0.181212,0.207794,0.513004,-0.134025,0.318129,0.133522,0.117909,0.217494,-0.275961,-0.167004,0.168658,0.691917,0.495575,-0.300875,-0.449444,-0.039504,0.519095,0.476313,-0.120215,-0.560909,-0.180566,-0.312894,-0.029125,-0.257669,0.477251,0.624719,0.022428,-0.238443
ausbau,0.139678,0.291429,-0.664835,-0.349225,-0.828358,-0.151952,-0.409981,-0.483448,0.016736,0.657714,-0.316534,0.601715,-0.168962,0.029322,-0.571452,-0.136839,0.345024,-0.031830,0.434867,-0.052711,-0.091643,0.295692,0.545812,0.011568,0.308541,0.299833,-0.025215,-0.248241,-1.111385,0.443983,0.625619,-0.176366,0.368947,-0.491080,0.461627,-0.035560,-0.295369,0.829338,-0.151680,-0.069699,-0.122412,0.481087,0.235849,0.321303,0.236262,-0.173611,-0.516246,0.390343,-0.118651,0.530649,0.474459,-0.017475,0.819203,0.353803,0.074739,0.306366,-0.556799,-0.800212,0.307310,0.263304,-0.009171,-0.328711,0.449528,-0.319822,-0.000157,0.108655,-0.231580,0.211542,0.021489,-0.484638,-0.385419,-0.401367,0.554432,0.488273,-0.950048,0.351971,0.096801,0.330737,-0.225944,-0.133445,0.197133,0.349456,0.248195,0.135433,0.290603,0.688550,-0.027628,0.151284,0.054300,0.266170,0.268884,-0.147423,-0.127023,-0.055046,0.227401,-0.357389,0.207260,-0.220786,0.036549,0.748335,-0.314624,-0.211143,0.210345,-0.268190,0.146618,-0.333402,-0.011442,0.044705,0.047909,-0.164719,-0.538188,-0.329515,0.154503,0.517832,-0.353768,-0.343753,0.046904,0.060424,0.370096,0.263707,-0.087397,0.265153,0.110619,-0.630550,-0.733132,-0.019819,0.096622,0.031931,0.234155,-0.387198,-0.113121,0.898998,-0.523615,0.616692,-0.499335,-0.429689,0.457047,0.105825,-0.792185,-0.374861,-0.712045,-0.042908,0.461653,-0.219696,-0.101891,-0.395028,-1.098919,0.163159,0.528166,0.162085,0.421734,0.106420,-0.160457,-0.034824,-0.109359,-0.602007,0.834425,-0.098857,-0.356004,0.416788,0.430685,0.205719,-0.168887,-0.532898,0.426654,-0.626824,0.488132,-0.093165,-0.242063,0.286415,-0.272770,-0.277909,-0.051085,-0.245264,-0.655433,0.152103,0.415063,0.164281,-0.990131,0.243981,0.039061,-0.267157,-0.531678,0.238828,-0.158022,-0.329340,-0.388024,-0.559341,0.679924,0.279549,0.011597,-0.422305,-0.110654,0.398741,0.712374,-0.316721,-0.422426,-0.079519,0.483307,-0.596622,0.421823,-0.050915,0.296075,0.071501,-0.002595,-0.143819,0.273060,0.372641,-0.501799,0.129504,-0.143702,0.291774,-0.283703,0.206456,0.264385,-0.603972,-0.189545,-0.279985,-0.460627,0.693761,-0.025757,-0.790386,-0.483766,-0.234389,0.730811,-0.596914,-0.420740,-0.074213,-0.086074,-0.261553,0.532315,0.073264,0.191726,-0.337857,0.152070,0.486753,-0.402443,-0.220298,-0.906524,0.036426,0.942339,-0.222745,0.129248,0.195068,-0.086767,0.495823,-0.664980,0.029424,0.330850,0.088510,0.297854,0.630323,-0.440539,0.818387,-0.666338,-0.250494,-0.132303,-0.441683,-0.768342,1.243174,-0.318724,-0.010790,0.108876,0.429393,-0.145440,0.352018,0.254269,0.678460,-0.745261,0.341209,-0.356479,-0.434580,-0.207876,-0.054530,0.329396,0.151032,0.710084,-0.020364,-0.558613,-0.554488,-0.117075,0.466907,-0.095314,0.341346,-0.276588,0.427952,-0.575948,0.123954,0.626680,-0.242471,-0.101353,0.238040,0.037914,-0.380088,-0.316680,0.357025,-0.150751,0.395704,-0.255670,0.005836
medizinische,-0.049765,0.242747,0.449445,0.310825,0.215460,0.144805,0.786970,0.001278,-0.197659,0.620076,-0.276682,-0.560606,0.507015,-0.093774,-0.416199,-0.727084,0.308394,-0.450580,0.245653,0.428705,0.080538,-0.410628,-0.750524,0.832586,-0.197349,0.794010,0.881771,-0.629271,-0.516307,-0.211578,0.635553,0.968042,-0.651266,-0.565134,0.406043,-0.106409,-0.524688,-0.526123,0.175448,0.013325,0.112057,0.398251,0.578306,-0.108937,0.311102,-0.007453,0.739662,0.173606,0.154569,0.164395,0.405616,0.043740,-0.210231,0.184238,0.059515,0.084494,-0.431124,-0.031826,-0.143571,0.161330,0.538487,0.088830,0.285662,-0.050718,0.036753,-0.172019,0.223687,0.026143,-0.112935,0.747686,0.021792,-0.118620,-0.558557,0.554012,-0.935614,0.880198,-0.355386,0.230900,0.302366,-0.109785,0.005047,-0.379154,-0.061004,-0.062561,0.518064,-0.031684,-0.443880,-0.117509,-0.713698,0.078300,0.095817,-0.214065,0.194536,0.165629,-0.334509,-0.046150,0.108735,0.648378,0.314673,0.554338,0.416532,0.753282,-0.332569,0.124924,0.199640,-0.583586,-0.218898,-0.353478,0.194173,0.510100,-0.401937,-0.704882,0.065753,0.432157,-0.473081,-0.514301,0.263676,0.215029,1.281955,0.158820,-0.381498,-0.242890,-1.062747,0.160540,-0.834008,-0.060900,-0.109013,0.459667,-0.173707,-0.008124,0.159244,0.157800,0.145472,0.037400,-0.596243,0.698069,-0.152570,-0.453623,0.091946,0.472548,0.140509,-0.189779,0.323129,-0.694859,0.083540,-0.403014,-0.132589,0.179418,0.128660,0.429135,0.073363,-0.489680,0.085442,-0.197474,0.080070,-1.085296,0.477236,-0.317567,-0.178663,0.129043,0.043480,0.000478,-0.352837,-0.407201,-0.328414,0.446677,0.124726,1.022633,0.342781,0.817501,0.611871,-0.938783,-0.183221,-0.087653,0.274578,-0.121300,-0.202741,0.121885,-0.725455,0.187535,0.612049,0.486307,-0.545573,-0.240694,0.331851,0.118771,0.816307,0.684317,0.096674,0.371024,-0.443705,-0.082891,0.258025,-0.143344,0.306173,0.146685,-0.026756,-0.079722,0.457896,-0.375477,0.220967,-0.345651,-0.378984,-1.111328,0.021809,1.229569,0.223108,1.283677,-0.135776,0.158224,-0.261231,0.234817,-0.772348,-0.606846,-0.085010,0.453273,0.829400,-0.546035,-0.812648,0.896877,0.564721,0.376013,-0.831083,0.105185,0.220114,-0.212281,-0.444955,-0.525640,-0.247352,-0.415914,0.340852,-0.055255,0.213160,-0.007692,0.362126,-0.010029,0.220463,-0.011807,-0.226416,-0.366487,0.621551,-0.226570,0.787823,0.062116,0.073565,-0.042173,-0.097892,-0.219013,-0.148322,0.458889,0.721614,0.045411,0.417417,0.517636,-0.252442,-0.037852,0.634430,-0.148272,-0.323813,0.662490,0.089337,-0.071888,-0.219122,-0.289094,0.146066,0.283457,-0.449837,0.024844,0.749688,-0.119151,0.086526,-0.410163,0.953491,-0.037231,0.044974,0.269116,-0.224034,-0.036775,-0.730273,-0.032178,0.635808,0.406998,-0.101602,-0.108142,-0.014354,0.141283,-0.272215,-0.371692,0.229677,0.225239,-0.455917,-0.645514,0.089595,0.087189,-0.378692,0.783274,0.616536,-0.131581,-0.098516,0.034822
sonstige,0.194458,-0.026871,-0.408835,0.491185,0.107053,0.318089,0.257284,-0.127172,-0.278307,0.063109,-0.129126,-0.157730,0.048553,-0.469409,-0.721405,-0.055325,0.494746,0.127837,-0.350704,0.167624,-0.407472,-0.219031,0.023734,-0.261073,-0.239222,0.100209,-0.252426,0.074645,0.023281,0.188720,0.676683,0.148242,-0.435567,-0.128736,-0.492966,-0.099700,-0.187870,0.047993,0.323526,0.272923,0.297906,0.087031,0.855809,0.170628,0.314240,-0.225822,0.100677,0.259867,0.031951,-0.381204,-0.052985,0.267389,-0.100000,0.034597,0.086852,0.328093,-0.292981,0.654519,-0.447385,0.340921,0.261611,0.039211,0.684739,-0.044520,0.034961,0.734534,0.327402,0.201510,-0.429479,0.265412,-0.724573,0.552903,0.661448,0.395252,-1.312683,0.825196,-0.016728,-0.081780,-0.023145,0.057209,-0.340106,-0.149976,0.020548,0.141437,-0.050773,0.588884,0.355052,0.252624,-0.516599,-0.459758,0.011499,-0.104585,0.281861,-0.422605,0.107024,-0.226120,0.920213,0.175191,-0.471794,-0.322110,-0.157727,0.318506,0.000611,-0.306127,0.164633,-0.030137,-0.116478,-0.294397,0.526347,-0.092558,-1.023966,0.070112,-0.278093,0.160084,0.122615,-0.151261,0.058813,0.066079,0.856884,0.304238,0.047608,0.435486,-0.621603,-0.066559,-0.692703,-0.591885,0.150520,-0.317278,0.010767,-0.563363,0.039525,-0.099049,-0.358649,-0.216658,0.010747,0.044364,-0.406113,-0.292182,-0.302732,-0.309723,0.121993,-0.121697,0.261620,-0.154303,-0.023732,-0.756538,0.290668,-0.129454,-0.030411,0.097707,-0.012573,0.083229,0.186434,-0.017131,-0.623742,-0.970137,-0.205456,-0.369440,-0.483727,0.571987,0.439092,0.284050,-0.360951,0.210351,-0.040008,0.079276,0.170029,0.320770,0.584069,0.283633,-0.518342,-0.570195,0.216706,0.056781,0.020239,-0.161140,0.479177,0.265531,-0.545707,-0.103987,-0.048917,1.669125,0.082957,-0.015830,0.511654,0.084812,0.045870,0.120186,-0.166824,-0.150624,-0.219532,-0.157366,-0.321868,0.289901,-0.558411,-0.475771,-0.035483,0.139172,0.441808,-0.289189,0.281083,-0.400433,-0.020137,-0.353515,0.014257,0.618032,0.328664,0.981474,-0.090186,0.054963,0.534129,0.312972,-0.472992,-0.071235,-0.847934,-0.380127,-0.064091,0.230775,-1.064461,-0.266800,-0.064688,-0.322815,-0.084875,-0.175209,-0.257678,-0.040550,-0.077457,-0.091982,0.011607,-0.271138,0.031661,-0.019770,0.035919,0.035785,0.488085,0.142569,-0.063917,0.154204,0.111343,0.160538,0.458397,-0.541384,0.461656,0.084614,0.532136,-0.125397,0.486575,-0.938291,0.272842,0.167318,-0.586551,-0.523899,-0.278378,0.326232,-0.075422,-0.121885,0.503329,0.383755,-0.102179,-0.063590,-0.371858,-0.521057,0.292104,-0.511629,-0.316519,-0.544466,0.100160,0.098133,-0.616329,-0.437052,-0.483259,-0.162462,0.705890,0.301646,-0.147589,0.237202,0.242693,0.196895,-0.096940,-0.175413,0.125620,0.089311,0.136756,0.514872,-0.117696,0.029387,-0.657724,-0.362349,-0.112332,0.305366,-0.279892,-0.401969,0.036481,-0.179530,-0.005452,-0.708423,0.198800,0.327717,-0.593411,0.708203
büro,0.001737,0.048011,-0.170910,0.119873,0.420384,0.239308,-0.415243,-0.478270,0.018609,0.767587,0.188543,-0.378817,-0.216900,-0.058778,0.284264,-0.854834,0.706946,0.422158,-0.076810,-0.019713,-0.239777,-0.159268,0.139253,-0.020007,0.460428,-0.083749,0.185914,0.234417,-0.096341,-0.104591,0.731673,0.451819,-0.161449,-0.036684,-0.328776,0.710578,-0.433487,-0.083453,0.493656,-0.210279,-0.045754,0.101074,0.106094,0.545174,-0.027846,0.111495,0.326438,-0.221396,0.029941,-0.788191,0.451566,0.532918,0.329434,0.269519,-0.107565,-0.196611,-0.222637,-0.475858,-0.491036,-0.653177,-0.063418,0.128000,-0.078081,-0.581662,0.212314,-0.035743,0.236971,-0.451969,-0.334379,0.176507,-0.313465,-0.176050,0.210259,0.097397,-0.877675,0.319208,-0.064031,0.119534,-0.093241,0.314689,0.476051,-0.366181,-0.062187,0.049969,0.301184,0.237258,0.880932,-0.803032,0.272941,-0.069223,-0.065378,-0.344902,0.545957,-0.172919,0.021331,0.035684,0.195916,0.504834,0.321819,0.513037,-0.009388,-0.273062,-0.508295,0.291504,0.718356,0.166391,0.134583,-0.064376,0.103055,0.691976,0.132500,0.306235,0.261986,-0.533800,-0.241854,0.046929,-0.505483,0.419270,0.857463,0.622988,-0.135917,0.145842,-0.971129,0.023690,-1.170445,-0.195309,0.677091,0.068079,0.054382,0.309729,-0.230100,-0.066117,0.045349,0.259886,-0.105031,-0.189310,0.107622,-0.097145,-0.186768,-0.176776,-0.008428,-0.048449,-0.410057,-0.045868,-0.190408,-0.225177,-0.436093,-0.327389,0.125903,-0.538130,0.291977,0.183262,-0.204308,-0.021889,0.118025,-0.647910,0.557482,-0.148184,-0.395253,-0.337911,-0.243290,-0.085919,-0.010785,0.713559,0.213002,0.122919,-0.184960,-0.345554,0.236435,-0.021836,-0.465019,-0.363662,-0.755655,-0.287617,0.362327,-0.441240,0.479225,0.295870,-1.011438,0.307365,0.218389,0.745414,-0.549038,0.435463,0.258701,0.317885,-0.046372,0.158630,-0.163761,0.342197,0.204453,-0.320581,-0.839383,-0.455625,0.323695,0.374335,0.110901,0.176303,0.197614,-0.450774,-0.254462,0.041141,0.653803,-0.505680,0.227128,-0.130675,0.409665,0.367244,-0.264178,0.202184,0.060356,0.244651,-0.320701,-0.369893,0.174564,-0.786936,-0.191701,0.179857,-0.005313,0.650052,-0.176885,-0.410011,-0.517161,-0.436211,-0.284912,0.020533,-0.617888,-0.313759,-0.286031,-0.631576,0.417718,0.736266,-0.156626,0.063559,-0.249526,-0.279271,0.522198,0.377584,-0.397418,-0.115063,0.097903,-0.249069,0.238973,-0.019944,-0.664075,0.651395,0.154390,0.361091,0.394081,0.214203,-0.287337,0.094822,-0.063853,1.087094,0.011557,0.495183,-0.077555,-0.451559,-0.533355,0.007952,-0.041704,0.147689,0.535828,-0.275625,0.212407,-0.606908,-0.211309,-0.273083,-0.067731,0.025476,-0.060202,-0.341648,0.402128,0.408440,-0.137001,0.082655,0.559008,0.239575,0.112249,-0.143988,-0.692375,0.012687,0.042677,0.103072,-0.489158,-0.203028,-0.705156,-0.031981,0.236177,-0.258820,0.041073,-0.614021,-0.453078,0.175377,-0.666428,0.462580,0.402093,0.385212,0.045205,-0.519390
bergbau,-0.657843,0.294595,0.087339,-0.269703,-0.563210,-0.024724,-0.539485,-0.705559,-0.816514,0.353364,-0.587999,0.529461,0.184824,-0.197473,-0.155004,-0.174168,-0.088789,0.041000,0.232515,-0.127056,0.427328,0.166934,-0.310602,0.133678,0.253059,-0.106065,0.173347,0.024753,0.370050,0.527831,-0.051434,0.230039,0.177933,-0.263232,0.488476,-0.660630,0.520707,-0.114503,0.016255,0.263484,0.297721,1.257583,-0.149575,-0.456605,-0.403998,-0.044688,0.212498,0.260272,0.090005,0.146953,-0.729646,-0.161207,0.362240,0.622454,0.382731,0.261995,0.029845,0.027076,-0.030996,0.231364,-0.382984,0.235692,0.447853,-0.212461,0.355468,0.017012,-0.133689,0.556234,0.183368,0.350769,-0.301449,-0.541000,-0.106545,0.104277,-0.663308,-0.275196,-0.177105,-0.026336,-0.144195,0.315089,0.141827,-0.497382,-0.152433,-0.065161,0.392556,0.204321,-0.070948,0.222653,-0.474594,-0.637939,0.102849,0.234982,0.167772,-0.097457,-0.223061,-0.029576,0.351765,0.161449,0.231186,0.162171,-0.538219,-0.263692,0.551022,0.298621,-0.551379,-0.094940,-0.679395,-0.319539,0.421217,-0.112897,-0.091619,-0.209668,-0.423523,0.226972,-0.833666,-0.606282,0.261802,0.806224,0.626700,0.330649,-0.037644,0.020527,-0.189083,-0.089532,-0.536230,-1.395384,-0.202985,-0.311930,-0.455734,-0.531366,0.546109,0.396387,-0.433640,-0.257303,-0.742014,0.458521,0.007873,0.471013,0.193859,0.109373,-0.192856,0.328334,0.145097,-0.592986,0.930984,-0.728183,-0.177519,0.837399,-0.413051,0.062171,0.802209,0.256000,-0.011846,-0.149181,0.299928,-1.947904,0.466318,0.159257,-0.379817,0.380469,0.206965,-0.898902,0.165899,-0.302017,-0.550630,-0.094226,0.424680,-0.057494,0.079032,0.303344,0.323070,-0.308451,0.413211,0.301609,0.057903,0.454364,0.672433,0.441631,-1.447519,-0.363893,-0.183372,0.135433,-0.946463,-0.107631,-0.293203,0.273448,0.133768,-0.000413,0.234985,0.481135,-0.275515,0.755309,0.202634,0.158471,-0.127756,0.110011,0.103905,0.383541,0.352085,-0.093600,0.176475,0.032198,0.638430,-0.721296,0.131698,0.468499,0.462630,0.174587,-0.021869,-0.361322,0.344682,0.604585,0.198115,0.103233,-0.349398,0.405543,-0.191414,-0.123622,-0.464039,0.246044,0.023532,-0.624778,-0.274801,0.035459,-0.166615,-0.592615,-0.385664,0.436224,0.255129,0.096042,0.639451,-0.190969,-0.068346,0.372405,-0.143947,0.536831,0.085179,-0.850936,-0.271162,0.036304,-0.006037,-0.244574,0.996574,0.021852,-0.145757,0.384459,-0.017954,-0.238740,-0.221430,-0.050581,0.375860,-0.777756,-0.264597,0.717166,-0.214086,-0.075957,-0.543753,0.531020,-1.049818,0.014209,0.421880,-0.217193,0.096295,0.510956,-0.225644,-0.336546,-0.043542,0.277921,0.217691,0.923969,-0.502401,-0.511870,0.494508,-0.049120,0.571956,0.811444,-0.241697,0.137891,-0.564842,0.332537,-0.814594,0.183692,0.280463,0.094725,-0.689886,0.800726,-0.150219,-0.679690,0.346813,-0.804974,0.552363,-0.605143,-0.550839,-0.426791,-0.016091,-0.383761,0.076397,0.610050,0.239867,-0.065551
therapie,0.307759,-0.225109,0.278424,0.203106,-0.423106,0.388334,0.688965,0.694871,0.147623,0.887651,-0.002681,-0.826842,-0.018559,0.996413,-0.698709,-0.276211,0.234613,-0.909008,-0.138414,1.105259,-0.479229,-0.063921,-0.285494,-0.066286,-0.046856,0.209008,0.182247,-0.407419,-0.180177,0.097626,0.067122,0.747568,0.044835,-0.756888,0.057091,-0.209992,0.420898,0.023896,0.348355,-0.078500,0.223448,0.064580,0.183326,-0.180448,0.791885,-0.430382,0.782457,0.080194,-0.012934,-0.181837,0.006250,0.074503,0.462940,0.047810,0.324729,-0.375729,-0.602647,-0.386547,0.064845,-0.626884,0.657661,0.294729,0.380149,0.615792,-0.007778,-0.344290,-0.156703,0.139743,-0.136802,0.292979,-0.235668,0.527441,-0.325880,0.255836,-0.783098,0.468216,-0.149463,0.442954,0.247645,0.068521,0.166434,-0.077439,0.225025,0.212178,1.284767,0.256687,0.229355,-0.460728,-0.596877,0.576921,0.059233,-0.398201,-0.273983,0.347187,-0.035087,0.223647,0.083822,-0.003657,0.130468,0.223341,-0.123327,0.640879,0.416691,0.042191,0.244025,-0.349619,0.245383,-0.727496,0.387378,-0.538925,-0.236858,-0.174874,0.235568,-0.292502,0.089451,-0.417808,0.090945,0.016156,1.148988,0.420954,-0.304292,-0.149461,-1.007207,0.110342,-0.565110,0.246406,0.120356,0.200772,0.053920,0.271234,-0.154554,0.447841,0.155826,-0.408495,-0.196875,0.189890,-0.589117,-1.104507,-0.373629,0.088434,0.323985,0.337805,0.240945,-0.987199,-0.142849,-0.511623,-0.197102,-0.271797,-1.045665,0.257683,0.188351,-0.161561,0.046078,0.135472,0.341128,-0.771245,0.451107,-0.268151,0.036644,0.694451,-0.045661,0.365759,-1.009548,-0.328069,-0.780835,-0.496949,-0.887090,0.350742,-0.017818,0.738376,0.610556,-0.278199,-0.768340,-0.296930,-0.279452,0.079041,0.063311,0.368010,0.097008,0.428498,0.767090,0.163478,0.199953,-0.023156,0.183286,-0.012282,0.812540,0.652226,0.156912,0.041678,0.124543,0.267437,-0.223201,0.715301,0.297530,0.048574,-0.311811,0.087717,-0.245154,-0.239033,0.375556,-0.273950,-0.014412,-0.389724,-0.042334,0.318241,0.362422,0.731859,0.269841,-0.711214,-0.508471,0.282454,-0.048404,-0.899691,-0.203316,0.171737,0.408229,-0.394446,-0.271162,0.149546,0.185481,0.053761,-0.486957,0.260184,-0.175821,-0.388588,0.543528,-0.462657,1.022513,-0.888379,0.731136,-0.478010,-0.448287,0.248279,0.372691,-0.243820,0.223750,0.635390,-0.858400,0.044113,0.222932,-0.495571,-0.066329,0.236769,0.182382,-0.293197,0.344070,-0.271182,0.471272,-0.501146,-0.057022,-0.236327,0.082088,0.171806,-0.429907,-0.024858,0.382378,0.183082,-0.723817,1.009898,-0.275471,-0.409465,-0.138288,-0.057338,-0.081073,1.062620,-0.080014,0.826882,0.377964,-0.347777,0.328155,0.106140,0.438441,-0.037810,-0.157898,0.376695,-0.047115,-0.613750,-0.374215,-0.515081,0.627961,0.011473,0.030434,-0.099293,-0.528187,-0.165083,0.127679,0.151488,0.437305,0.213309,-0.407517,-0.122792,-0.207978,-0.263898,-0.716916,0.593230,0.217151,-0.064351,-0.304650,0.740508
pflege,-0.035596,0.319804,-0.264270,0.136413,-0.673055,0.098905,0.249209,0.203163,-0.265636,0.565135,-0.267031,0.119468,0.365006,0.765003,0.185366,-0.178204,0.071708,-0.611902,0.495997,0.446865,0.194889,0.339584,-0.152172,0.114063,-0.978122,0.891680,-0.232790,-0.183137,-0.499168,-0.062568,0.888002,0.145794,-0.003760,-0.076064,-0.317247,0.230115,0.085035,0.086375,-0.006457,-0.032742,0.387672,0.832012,-0.127210,0.105004,0.256480,0.034992,0.086850,0.244932,0.023000,-0.002059,-0.022350,-0.470794,-0.020815,-0.242076,-0.248855,0.185661,-0.194222,-0.743154,-0.326945,0.222865,-0.107547,-0.164589,0.245754,0.289071,-0.061099,-0.180563,-0.138210,-0.676766,-0.440186,0.354302,-0.156635,0.215805,-0.010536,0.489014,-1.021001,0.381443,0.053812,0.857546,-0.006393,0.607795,-0.294759,-0.583713,0.071136,0.518072,0.375554,0.052063,0.128344,-0.255651,0.038916,0.309816,-0.095831,-0.223681,0.391198,0.031540,-0.209231,-0.324634,0.660807,-0.154643,0.221019,0.510846,-0.080320,0.078820,0.010441,-0.660788,-0.063456,-0.633478,0.115611,-0.036491,0.076785,-0.067465,-0.764239,-0.355044,0.140601,0.174979,-0.787420,-0.458079,0.145115,-0.140432,0.808999,-0.189758,0.087271,0.213074,-0.871755,-0.242722,-0.721248,-0.456850,-0.444645,0.026782,0.302594,0.021910,0.088341,0.508288,0.294639,0.236129,-0.547130,0.344216,-0.274848,-0.207996,0.087066,-0.081960,-0.532177,0.283678,0.259985,-1.132238,0.463772,-0.597154,0.042137,-0.227492,-0.814432,0.497572,-0.157117,0.346338,-0.369059,0.091994,0.239964,-0.704453,0.554623,-0.332485,0.176647,0.551426,-0.245185,0.091208,-0.316977,-0.249010,0.014056,0.109271,-0.451612,-0.263204,0.269849,0.375275,0.408345,-0.444018,-0.960071,-0.385528,-0.096614,0.139439,-0.077009,0.129230,-0.562748,-0.269293,-0.073678,0.269761,0.073457,0.041360,-0.513614,0.057002,0.215835,-0.298088,0.297276,0.339872,-0.278070,-0.006931,0.026963,0.237200,0.122429,-0.002753,-0.246559,-0.106553,0.534772,-0.358179,0.212736,-0.464591,0.001920,-0.180944,-0.369905,0.433756,-0.116785,0.854748,0.503344,0.081602,0.838843,0.154699,-0.005912,-0.237450,-0.274053,0.138555,0.355238,-0.286383,-0.731042,-0.410459,-0.369031,-0.380396,0.222948,0.031016,0.427497,-0.948953,-0.639231,-0.133597,0.058846,-0.007751,0.509447,-0.028515,0.371768,0.186660,-0.104495,-0.102179,0.200196,0.838348,-0.717907,0.228746,0.944547,-0.353378,0.543989,0.340909,0.178999,0.464103,-0.232266,0.117156,0.327175,-0.312125,0.531974,0.511308,-0.643943,0.760990,0.262492,-0.170049,0.803271,0.219129,-0.626812,0.886864,-0.085486,-0.153994,0.369000,0.043455,0.179271,0.240250,-0.733443,0.457279,-0.140580,0.753818,-0.345979,-0.036925,0.150258,-0.030072,0.165603,0.227178,0.324297,-0.124595,-0.353939,-0.690788,0.575709,-0.113717,0.286224,-0.926506,-0.742154,0.057666,0.407872,-0.064274,0.813487,0.712697,-0.625013,-0.249440,0.031885,-0.724722,-0.265674,0.587431,0.323534,0.170331,0.128688,0.125088
glas,0.098718,-0.441717,-0.547322,0.143872,-0.679532,-0.191130,-0.286142,-0.485662,-0.098043,0.784203,-0.115623,0.172792,0.064551,0.166426,-0.246456,-0.343185,-0.294274,-0.491771,-0.364515,-0.187166,-0.220070,-0.184889,-0.230542,0.243701,0.139594,0.273610,0.272646,-0.364631,0.318963,-0.393700,0.148933,-0.307280,0.036829,0.517203,0.292012,-0.114422,-0.093705,0.038069,0.152911,0.206334,0.228031,1.189773,-0.394967,0.328748,-0.419564,-0.266829,0.064655,-0.074632,-0.452973,0.368489,-0.475132,0.060474,0.696155,0.298200,-0.265682,0.153734,-0.093690,0.181109,0.420913,-0.444498,0.833182,0.934363,-0.223340,0.038635,-0.494692,0.470705,0.974874,0.001202,0.353524,0.261406,-0.018913,-0.039092,0.542521,-0.604564,-1.138594,0.120240,-0.153719,0.343843,0.291184,0.150071,0.484286,-0.560197,-0.289803,-0.255195,-0.099025,-0.577063,-0.377003,-0.229918,0.350778,-0.170525,-0.116816,-0.159643,-0.822010,0.121766,0.453730,0.189326,0.955345,0.835945,0.913654,0.237128,-0.319944,-0.096070,0.064036,0.110034,0.346228,0.649371,-0.232075,-0.433079,-0.022249,-0.102273,-0.206557,-0.017494,-0.037288,0.085305,-0.063416,-0.675092,-0.324471,0.305175,0.519891,-0.375419,-0.471873,-0.082149,-0.427810,0.267350,-0.552206,-0.488750,0.598515,-0.328484,-0.051273,-0.192159,0.566521,-0.875287,-0.764538,-0.409902,-0.147400,0.449850,-0.093552,0.147667,0.260628,-0.690428,-0.011616,0.242825,0.132786,0.461913,0.335635,0.268946,-0.526680,-0.615224,-0.044374,0.233214,0.126007,0.037756,0.338643,-0.051166,0.060169,-0.967048,0.279885,0.085372,-0.223005,0.447095,-0.900218,0.539842,0.751501,0.454146,-0.624710,0.032776,0.151222,-0.362847,0.017453,0.008050,-0.189715,-0.047305,-0.094307,-0.101661,-0.047423,-0.199692,0.462822,0.092938,-0.935999,0.012834,0.515365,0.947914,-0.096957,-0.644777,-0.240853,-0.129692,0.725524,0.735741,0.318194,0.515422,-0.188379,-0.081080,-0.804679,-0.354317,-0.655057,0.173441,0.142335,0.174523,-0.238288,-0.377552,0.029999,-0.250616,0.236653,0.206861,0.161919,0.620740,-0.079648,0.705180,0.070956,-0.058006,0.016614,0.662376,0.205778,-0.261400,0.174965,0.080666,-0.243300,-0.234427,0.146461,-0.073610,0.141543,0.298105,-0.338993,0.170744,-0.723847,0.565275,0.025066,0.027641,0.083724,-0.278551,0.319738,0.012482,-0.201153,-0.282975,-0.264879,-0.008214,-0.162420,-0.325989,-0.176894,0.664123,0.672763,-0.244704,-0.017866,-0.517556,-0.120342,-0.704572,0.368071,0.371926,-0.098713,0.483654,-0.213378,-0.059981,-0.309191,0.736466,0.308006,-0.186335,0.431057,-0.157644,-0.777739,-0.162074,0.740881,-0.607772,0.048735,0.458150,-0.005395,0.644566,-0.235747,-0.503912,-0.226926,0.018670,0.140342,-0.397915,0.770050,0.159933,0.189825,0.170228,0.506610,-0.319139,-0.348079,0.674601,-0.629927,0.501253,0.018663,0.216044,0.111589,0.344511,-0.387353,-0.404349,0.136340,-0.688635,-0.119455,0.590322,-0.383447,-0.268250,-0.415440,-0.208171,0.517702,0.219462,0.097094,-0.099697
ernährung,-0.179297,-0.050171,-0.205780,0.845943,-0.007026,-0.259054,0.292441,-0.087545,0.960781,1.291058,-0.369384,0.447419,0.883616,0.343183,-0.433176,0.259826,0.494340,0.120080,0.455189,-0.397686,0.096540,-0.023292,-0.130159,0.645671,0.320151,0.720312,0.271361,-0.596641,0.108851,0.288233,0.601953,0.855644,0.080386,0.103220,0.260495,-0.206691,-0.455789,0.034370,0.195160,-0.283494,0.687918,0.790060,0.062954,0.461551,0.314717,-0.216028,0.127214,-0.012853,-0.234352,0.353622,-0.387019,0.463170,-0.064100,-0.390025,-0.075337,-0.114352,-0.114716,-0.436642,-0.121985,0.263084,-0.241555,0.362406,0.681145,-0.056723,0.539865,-0.417827,0.288915,-0.343561,-0.207771,0.351836,-0.263391,0.292426,-0.241684,0.517834,-0.318695,-0.083690,-0.397084,0.289069,-0.559146,-0.456633,0.113860,-0.338582,0.280315,-0.451226,0.257374,0.325815,0.088013,-0.231620,-0.255999,0.638661,-0.276230,-0.669513,-0.363219,-0.056667,-0.439743,0.211419,0.180334,0.516411,0.159094,0.210822,-0.267253,0.455683,0.472691,-0.445953,-0.349745,-0.230323,-0.161014,0.003842,-0.333106,0.286443,-0.915313,-0.324963,0.474701,0.092398,-0.679896,-0.539052,0.311836,-0.040082,0.890722,-0.198724,0.280265,0.132448,-0.793951,0.079637,-0.814862,-0.485521,0.008294,0.446465,-0.222605,0.058367,-0.432907,-0.518352,0.252402,-0.102675,0.139024,0.459057,-0.580962,-0.163285,-0.146761,0.031511,0.065721,0.143992,-0.376192,-0.576449,0.597916,-0.726823,0.090840,0.510626,-0.448442,-0.066212,0.548908,0.084349,-0.115135,0.069021,0.136711,-0.892629,0.308524,0.007161,0.042384,0.250804,0.332421,-0.711010,-0.218180,-0.190928,-0.364347,-0.017930,-0.478695,0.381407,-0.394010,0.233273,0.461553,0.009199,-1.337565,-0.215942,-0.044870,0.076462,0.465907,0.784368,-0.888531,0.027501,0.104846,-0.052367,-0.689773,0.162925,0.256965,0.010338,0.573018,-0.169232,-0.237072,0.237430,-0.717753,0.137015,0.121410,0.667535,-0.304804,-0.687611,-0.539192,-0.025003,0.611294,-0.296254,0.198097,0.195428,0.115309,-0.070467,-0.022645,0.316662,0.039540,0.908300,0.031212,0.200239,-0.216208,0.677529,0.142419,0.834747,-0.344906,0.246309,0.761491,-0.228931,-0.824983,0.271091,0.159134,0.100660,0.113993,-0.011289,0.163125,-0.976070,-0.086226,-0.521667,0.132234,-0.532936,0.749271,-0.071533,0.096131,0.470052,-0.480142,-0.294402,-0.108518,0.118574,-0.591043,0.250938,-0.340126,-0.838347,0.542164,0.399721,0.246204,0.021858,0.144631,0.168345,-0.095671,-0.180698,-0.267086,0.563852,-0.336770,0.767252,0.154598,0.265958,0.449705,0.174560,-0.656137,0.075984,-0.839634,-0.021919,0.244521,0.079150,0.403336,0.673956,-0.664387,0.390542,0.283404,-0.460452,-0.153724,0.134741,0.256718,-0.175306,0.527506,0.607189,-0.249958,-0.043322,0.413895,-0.190098,-0.015885,0.172676,0.246162,0.466585,-0.490700,0.234435,0.496502,-0.614295,0.091187,0.276670,-0.125245,-0.675748,-0.192271,0.157551,-0.225626,0.353378,0.088319,0.301292,0.033994,0.334003
marketing,-0.356203,0.435701,-0.899064,-0.108223,-0.061097,0.387926,0.364004,0.101974,0.292295,0.198086,0.110252,0.420090,0.468937,-0.057437,0.182461,0.304326,0.175108,-0.069637,0.098996,0.120403,-0.357732,-0.307063,0.663623,-0.433591,0.339520,-0.140339,0.473539,-0.401573,-0.182829,0.153597,0.543942,0.818253,0.464222,-0.284534,-0.240415,-0.045854,0.565355,-0.474497,-0.185373,-0.853257,0.128841,0.060902,-0.436561,-0.129403,-0.376337,-0.055252,-0.449765,-0.008580,0.250999,0.087854,0.269358,-0.216032,-0.150588,0.717585,-0.009275,-0.275904,-0.625618,-0.372582,-0.114596,-0.617552,-0.769151,-0.265930,-0.085181,-0.817458,-0.281802,-0.418977,0.405838,-0.103772,-0.274226,-0.047382,-0.341420,0.293981,-0.064929,0.177180,-1.102408,-0.410706,0.046057,0.085240,-0.536574,-0.420535,-0.225006,-0.029952,-0.335363,0.433102,0.480570,0.221892,0.158153,-0.424467,-0.444846,0.837377,-0.156182,0.208726,-0.403545,-0.014375,0.213356,-0.106860,0.265182,0.361224,0.349150,0.151285,-0.087415,0.061887,0.006105,-0.584399,0.080697,0.397947,0.488857,-0.222245,0.701189,0.254961,0.153247,0.306113,-0.106208,-0.311342,-0.123047,-0.422836,0.141015,0.202769,0.749410,-0.299714,0.129850,0.178355,-0.804604,0.327031,-0.827393,-0.243501,0.117397,-0.064889,0.342996,0.184167,-0.514765,-0.096447,0.627262,-0.030411,0.236748,0.241886,0.321146,-0.644661,-0.105227,0.330956,-0.019740,0.531128,0.490600,-1.027621,-0.152543,-0.539658,0.071700,0.071239,-0.691341,-0.097815,0.679110,0.670981,-0.429491,-0.175574,0.218744,-1.343184,0.439722,-0.872202,-0.068253,0.198452,-0.137462,-0.368014,0.129224,0.285064,-0.471150,-0.210111,-0.645970,-0.123386,-0.420211,-0.136540,-0.209078,-0.210250,0.044766,0.132787,0.002455,0.290602,0.276987,0.087874,-0.861610,0.336520,0.296015,1.014684,0.302441,0.812533,-0.167730,-0.662555,0.059534,-0.180368,0.096485,-0.080041,0.147821,0.511272,-0.546795,-0.309433,0.206219,-0.789808,0.608833,-0.596189,1.035939,-1.096926,-0.100645,-0.498684,0.171840,-0.083901,-0.482471,0.637440,1.322060,0.197974,-0.127530,-0.193029,-0.435551,0.225524,-0.542452,-0.695709,0.325698,0.325822,1.168031,-0.294205,-0.022750,0.239855,-0.479978,-0.482265,-0.415809,0.006253,0.132770,-0.027652,0.045987,-0.382959,-0.166756,-0.420416,0.233656,0.474034,-0.368494,0.138296,0.555961,0.233962,0.273105,0.215970,-0.201955,0.271601,0.975862,0.392490,0.644009,0.157008,-0.324418,0.023000,-0.025022,-0.446933,0.076969,-0.099830,-0.044453,-0.451092,-0.059086,0.008450,0.470790,-0.190845,0.602575,0.224232,-0.348287,0.554319,0.595753,-0.152254,0.085661,-0.237202,-0.037232,-0.133534,-0.057192,-0.282434,-0.131229,0.166141,0.277526,-0.378382,0.038607,0.172637,0.768503,-0.077608,0.249364,0.789700,-0.399193,-0.424586,-0.503791,0.150467,-0.316338,-0.277716,-0.071793,0.146327,-0.014984,0.221956,0.139089,-0.139365,0.080383,-0.226855,-0.158938,-0.397418,-0.372301,0.016985,-0.021829,-0.004608,0.203502,-0.175222
pädagogik,-0.489887,-0.004979,0.082208,-0.167080,0.236934,0.158072,0.155389,0.996648,-0.125295,0.114283,-0.095077,-0.214765,0.389301,-0.021575,0.461124,0.283897,0.278532,0.163467,0.631023,0.004561,-0.079090,0.430322,-0.006044,-0.262149,-0.284661,0.242851,0.151588,-0.285211,-0.438441,0.104018,0.192227,0.610029,-0.006518,-0.426317,0.457143,0.081841,0.042364,-0.511448,-0.022259,-0.006939,-0.208569,-0.163240,0.093382,0.086899,0.470121,0.455493,0.657291,-0.544814,-0.260659,-0.722304,-0.131796,0.191833,0.255465,0.719086,-0.325263,-0.338881,-0.158837,-0.600613,0.151398,-0.642709,-0.975279,0.041152,-0.256663,-0.103014,0.265516,-0.565699,0.236440,-0.478910,0.166541,-0.197955,0.003655,0.231936,-0.687011,0.611321,-0.890987,0.408797,0.121943,0.357050,-0.731028,0.142834,-0.321128,0.161171,0.263498,-0.293414,0.215779,-0.501652,-0.242404,-0.080922,-0.590057,0.666769,-0.636239,0.638364,-0.098757,0.622451,0.091969,-0.265884,0.301616,0.324296,-0.219185,0.190166,-0.059343,-0.033922,0.728652,-0.474697,-0.191338,-0.301758,-0.035411,0.301606,0.025186,0.094113,0.033563,-0.112838,-0.031362,-0.072217,-0.741138,-0.243204,0.435437,-0.056439,1.283753,-0.626215,-0.041493,0.091098,-0.851424,0.357610,-0.830074,0.410302,-0.031714,0.845585,0.309739,-0.016598,-0.184403,0.212400,0.277634,-0.114332,-0.360657,-0.034786,0.277611,-0.922450,-0.213096,0.359148,-0.164904,0.024971,0.870816,-0.626808,0.206706,-0.355787,0.075742,-0.456390,0.378267,0.143889,1.119591,-0.254829,-0.038441,0.053888,-0.680211,-1.066330,0.233278,0.260174,-0.449960,0.317113,-0.100406,0.393031,-0.167321,-0.060161,-0.452365,0.158789,-0.053192,-0.065195,0.252981,-0.047892,0.643323,-0.514803,-0.458843,0.099807,0.222801,-0.406446,-0.285383,0.127928,-0.757995,-0.273702,0.399282,0.179757,0.347421,-0.088303,-1.014687,-0.413221,0.446250,-0.165363,0.194555,0.343831,-0.442808,0.023219,0.128367,1.213617,-0.253979,0.248616,0.023404,0.082272,0.309456,-0.569182,0.502947,0.030801,0.203146,-1.015407,0.377275,0.293391,0.533881,0.354680,-0.853729,-0.088728,-0.339336,0.743869,0.262328,-0.291184,-0.294272,0.977142,0.248164,0.079630,-0.632737,-0.327977,-0.619599,-0.102645,-0.443713,0.109188,0.140634,-0.389193,-0.340029,-0.615256,0.117241,-0.376760,0.581662,0.226663,-0.154711,0.470387,-0.147617,-0.371387,-0.781243,0.383020,-0.074326,0.010816,0.733767,-0.046986,-0.090002,0.219072,-0.234068,-0.226721,-0.326078,0.117909,-0.213155,-0.608273,0.492606,-0.100813,0.087994,0.302831,-0.064501,-0.123457,0.251835,0.146414,0.307351,0.636964,0.405018,0.520318,0.118097,-0.181414,0.500266,0.490688,-0.100376,0.050710,0.613707,0.258260,0.211651,0.392596,0.310917,-0.290784,-0.129470,0.293500,0.089715,-0.451301,-0.695574,-0.298276,0.590964,-0.000247,-0.682296,-0.771262,0.081889,0.641961,-0.453682,-0.469169,-0.158104,0.241279,-0.403029,-0.240697,-0.304376,-0.073861,0.046628,0.697396,0.291653,0.009555,0.365607,0.051749
beton,0.017418,-0.782904,-0.188465,0.088063,-0.789812,-0.384339,-0.634753,-0.176710,-0.145270,0.841566,-0.435396,0.248425,-0.038549,0.148583,-0.457544,-0.150917,-0.530438,-0.186358,-0.366045,0.026772,0.310736,-0.196382,-0.348241,0.499728,-0.219927,-0.366607,0.569511,-0.480801,0.038780,-0.851109,-0.441852,-0.013312,0.356546,0.199208,0.216730,-0.581240,-0.610181,-0.270425,0.407952,-0.112789,0.422808,0.970879,-0.382041,-0.516409,0.133272,0.069728,0.276402,-0.199701,-0.110312,0.899545,-0.199784,0.432098,0.452982,0.149185,-0.056155,0.438627,-0.442153,-0.346995,0.589627,-0.152013,0.427530,0.296834,-0.471652,0.528238,-0.702945,-0.018884,0.811633,0.324174,-0.024347,-0.280993,0.036406,0.096783,0.054714,-0.074761,-0.949336,0.417955,0.138697,-0.057009,-0.006843,-0.146521,0.559001,-0.320832,-0.183593,-0.383298,-0.173755,-0.377073,0.010384,-0.053461,0.797960,-0.166635,0.339862,0.370993,-0.274273,-0.340216,0.399538,0.658748,0.174581,-0.058136,0.624520,0.593680,0.197513,0.248186,-0.287252,-0.293529,-0.280978,-0.179684,-0.148992,0.278695,-0.070958,-0.099614,-0.429914,-0.423268,0.515010,0.086368,-0.446515,-0.706538,-0.542860,-0.151391,0.582205,0.158456,-0.184426,0.056411,0.047312,-0.232302,-0.287696,-0.169207,0.297579,0.217033,-0.099194,-0.292585,0.013923,-0.059430,-0.476159,-0.010018,0.098328,-0.457258,0.059812,-0.478459,0.462355,-0.034653,-0.061967,-0.130105,-0.231284,0.696246,-0.025303,0.158546,-0.854370,-0.044000,0.647336,-0.008677,-0.115968,-0.667602,-0.299223,-0.402549,0.162501,-0.736959,0.235850,-0.387375,-0.377471,-0.050011,-0.091996,-0.070500,0.292982,-0.018338,0.047892,-0.139782,-0.010289,-0.256817,0.121496,-0.067717,0.052085,-0.146719,-0.006426,-0.330801,0.055893,-0.360031,0.240106,0.298449,-1.248216,0.724509,0.591835,0.370112,-0.091575,-0.234688,0.129087,-0.344707,0.333843,0.131722,0.444399,-0.199487,0.065769,-0.135871,-0.297498,-0.880855,-0.398818,0.108778,-0.353501,-0.104400,-0.185203,-0.854133,-0.211205,-0.372427,0.266087,-0.202086,-0.308767,0.210686,-0.048464,1.201240,0.226208,-0.097395,0.264064,0.581646,0.183404,0.142610,0.213930,-0.383019,-0.387437,0.167386,-0.019204,0.038925,0.082433,0.005462,0.484070,-0.300713,-0.134037,-0.009370,-0.129877,0.233564,-0.071001,-0.862164,-0.197521,-0.062546,-0.185972,-0.296809,0.063362,0.497684,-0.073557,-0.163067,-0.434644,0.216099,0.310282,-0.469476,0.092616,0.203185,-0.567608,-0.353485,0.188550,0.255393,0.192780,0.324921,-0.520922,0.070232,-0.096995,0.460599,-0.409964,0.166357,0.140617,-0.472019,-0.354495,0.414054,0.229572,-0.402607,0.439980,0.025436,-0.394187,0.409199,0.085435,0.239068,0.041848,0.190540,-0.167364,-0.209695,0.470480,0.574889,-0.117241,-0.029166,0.189287,0.259463,-0.707796,0.186618,-0.458465,0.439767,-0.179987,0.288388,0.080114,-0.003691,-0.716339,-0.385137,0.346901,-0.579841,-0.450516,0.286701,0.023590,-0.034255,-0.139428,-0.289849,0.367199,0.658706,-0.301421,-0.381380
lebensmittel,-0.085911,0.255291,0.214174,0.627753,-0.078724,-0.335764,-0.561064,-0.370798,0.336868,0.851837,0.125405,0.739159,0.312572,0.554840,-0.030186,-0.376997,0.618189,0.479428,0.220920,-0.309310,0.046255,-0.427005,-0.347897,0.136492,0.201221,0.339841,0.213214,-0.747158,-0.089914,0.052646,0.255676,0.471867,-0.455383,-0.041993,0.458870,-0.640932,-0.070095,0.134608,0.386738,-0.429327,0.525290,0.189985,-0.056102,0.544696,0.522277,0.197211,0.094603,0.556684,-0.119882,-0.029124,0.100252,0.113493,-0.151471,-0.119258,0.426191,0.143594,-0.164251,0.042537,-0.720187,-0.100761,-0.145644,0.406080,0.345463,-0.131624,0.425923,0.388312,0.472391,-0.211755,-0.439632,0.012129,-0.453873,-0.136321,-0.146223,0.433742,-0.297760,0.166972,-0.173583,0.123619,-0.218729,0.058502,0.362903,-0.465733,0.243133,-0.081854,0.183817,0.695077,-0.114651,-0.317779,-0.310870,0.450884,0.164192,-0.060744,-0.305257,-0.314810,-0.054538,0.013023,0.617294,0.581777,0.536184,0.330611,-0.277516,1.353246,0.708873,-0.401494,-0.098811,0.308740,-0.340812,-0.138152,-0.023228,0.543725,-0.443731,-0.142948,0.348138,0.010045,-0.517140,-0.217382,0.060967,0.015066,0.753523,0.349262,0.027004,0.434836,-0.779970,0.285997,-0.040192,-0.410718,0.647650,-0.037594,-0.126500,-0.084049,0.039522,0.314650,-0.108624,-0.607594,-0.543079,0.617449,-0.464570,0.443752,-0.457299,-0.388691,-0.071303,0.120967,-0.127376,-0.321927,0.285702,0.390718,-0.182499,0.033648,-0.243486,0.260484,0.288392,0.613883,0.641336,-0.147430,0.403894,-0.983750,-0.285605,-0.351385,-0.257141,0.519501,-0.492038,-0.568077,0.086957,-0.041281,0.084607,-0.106870,-0.197677,0.578865,0.040407,0.009088,0.205524,-0.214992,-0.028587,0.254244,-0.115306,0.593068,0.401903,0.195287,-1.063276,0.469179,0.160830,0.461217,-0.370248,0.388924,0.374557,0.146712,0.778545,0.575405,0.468233,0.120620,-0.236650,0.339772,0.325089,-0.078283,-0.427723,0.033835,-0.111252,-0.408489,0.393888,0.136908,0.497640,-0.175000,-0.258390,0.233094,0.230846,0.830489,0.412915,0.850853,0.303889,0.309205,-0.008724,0.197871,0.029259,0.449909,-0.120225,0.644944,0.785741,-0.025797,-0.425705,0.229609,0.338507,0.166430,0.263742,-0.058841,0.362892,-0.275034,-0.293991,-0.769659,0.027489,-0.573525,0.311131,0.150037,0.114843,0.100995,-0.207194,-0.392413,0.319308,0.416197,0.048519,0.056123,-0.177200,-0.306926,0.894706,0.214315,0.367514,0.057623,0.781655,0.302291,0.147739,0.291672,0.294891,0.071626,-0.101331,0.334392,-0.060243,-0.344049,0.407445,-0.272584,-0.563005,-0.100456,0.118396,-0.066470,0.194754,-0.545657,0.080126,0.208909,-0.588821,-0.389706,-0.168888,-0.211444,0.152358,-0.441899,0.142365,0.575056,-0.103382,0.616450,0.182190,0.116199,-0.435562,0.364333,-0.666065,0.263255,0.967815,0.397049,-0.184483,0.350416,-0.447628,-0.337734,0.206523,-0.106463,-0.114637,-0.187270,-0.410065,-0.039718,-0.484756,0.574243,0.995929,0.076199,-0.219878,0.379625
maschinenbau,-0.406686,-0.034091,0.213074,-0.344340,0.074938,0.110559,0.129823,-0.337742,-0.131400,0.521650,0.001994,0.125195,-0.224848,-0.428267,-0.020990,0.134404,-0.256401,0.111204,0.307203,-0.598295,-0.041659,0.248810,0.090335,0.363683,-0.404016,0.037444,-0.068205,-0.647255,-0.803172,0.158846,-0.093059,0.569136,-0.337188,0.007616,0.689727,-0.057161,0.127548,-0.328202,0.018868,0.121975,0.510846,0.602415,0.254334,-0.672190,0.200645,-0.251320,-0.720989,0.333302,-0.632502,-0.723860,0.194535,-0.674977,0.382968,0.369177,-0.815885,0.073485,-0.505145,-0.297081,0.321539,0.085409,-0.620398,-0.101940,0.092718,-0.692654,-0.357989,0.112923,0.231700,-0.183423,-0.350582,-0.487542,-0.366393,-0.085433,-0.199468,-0.141199,-0.744019,-0.121998,-0.107106,0.255815,-0.268620,-0.042731,0.344190,-0.647532,-0.269166,-0.585998,0.411958,0.039055,-0.027701,0.158345,-0.015082,0.122550,-0.306500,-0.011542,0.119823,-0.152765,0.085694,0.255673,0.648973,0.387619,0.257695,-0.566861,0.279001,-0.107949,0.049483,-0.334745,-0.115528,0.371186,-0.185240,0.411038,-0.076340,-0.236210,0.028982,-0.009195,-0.106135,0.330900,-0.587244,-0.574859,0.093038,0.474735,0.743904,0.359919,0.256069,0.002563,-0.736276,-0.253484,-0.804242,-0.894899,0.315218,-0.072537,-0.095282,-0.546863,0.073930,-0.051768,-0.497986,-0.258508,-0.259194,0.200792,0.123502,0.042514,-0.136245,0.318434,-0.034773,0.217151,0.308427,-0.528848,0.266925,0.397296,-0.778050,-0.245852,-0.082954,0.382732,0.110418,-0.142048,-0.149002,-0.125381,0.389910,-1.286891,0.394575,0.296771,-0.470079,0.055419,0.034594,0.183138,0.292151,1.014377,-0.294241,0.325701,0.295019,0.536803,0.095964,-0.178854,0.122312,-0.548146,0.178510,0.560116,-0.226423,-0.327024,-0.011566,-0.104738,-1.076363,-0.678324,0.451325,-0.036067,-0.544165,0.051847,-0.620886,0.260774,0.219385,0.653689,0.574536,0.197811,-0.166694,0.799897,0.036693,0.680563,-0.215879,0.156020,0.590999,0.391122,0.309143,-0.672576,-0.441201,-0.175220,0.062466,-0.830112,-0.214658,1.521829,-0.046093,0.780496,-0.092239,-0.410297,-0.386324,0.250170,0.059836,0.119299,0.123306,-0.127983,0.363425,-0.041001,-0.056172,0.053804,0.393487,-0.564203,-0.157591,0.014940,0.487166,-0.331913,-0.371712,-0.393957,-0.319516,-0.842483,0.294935,-0.161224,-0.088144,0.041987,0.456221,0.287795,0.450733,0.127552,-0.253932,0.029139,0.233595,0.287127,0.591846,0.222674,-0.797654,-0.223249,0.063374,-0.307613,0.008204,-0.048536,0.395474,-0.412416,0.230512,0.270824,-0.300570,-0.004735,-0.304426,0.389198,-0.241253,-0.041088,0.231234,0.283870,0.181646,-0.479032,0.354849,0.033265,0.094403,-0.496617,-0.184022,0.147981,0.475215,-0.203315,-0.142888,-0.135083,0.068378,0.664669,0.024137,-0.196165,-0.323599,-0.138209,-0.369982,-0.206074,0.115951,0.132095,-0.236639,0.429510,-0.365838,0.079081,0.260104,-0.570587,0.366836,-0.229056,-0.423344,0.014537,-0.322269,0.287421,0.323900,0.298663,0.737347,-0.225919
